146 300
<unk> -0.0484488184205 -0.0440981389198 0.0545221642649 -0.00703760927919 0.0543621434703 -0.0359472041607 0.0226915359096 0.0101791349199 0.0112708754653 0.0027760097006 0.0539261764509 0.0508792995541 0.0525755074432 0.00687743082839 0.0623625155676 0.0171828730581 0.0285194557499 -0.00383892455325 -0.00993693605172 -0.0431362736602 0.021848346617 -0.0558653449466 -0.0212150210259 0.0581198970969 0.0312972051501 0.0490046067149 -0.0390646967353 0.0245392831471 -0.0136760616862 0.00140789634375 0.0223091163856 -0.0297856274338 -0.0513608045557 -0.0538269020354 0.0305758822342 0.0706367477682 0.0460183600056 0.0466089028576 -0.0296890484311 -0.0176669637805 0.0496730078782 0.0121839061061 0.0601267927506 -0.0576906796128 0.030149685118 0.0661975652396 -0.060628179476 0.0160336183542 0.0608033133176 0.0300755507268 0.00847965905975 -0.032793738901 0.031726807995 0.00570552581567 0.0407209068255 -0.00580429428562 0.0102212643585 0.0691121677566 0.0621385628169 0.0536980962142 0.0462258593971 -0.0526365685753 -0.0186460521677 0.0175112607109 0.0302201026093 -0.0042297263363 -0.0456644152712 -0.0109632333885 0.0388191615521 -0.0264953538339 0.0722325410519 -0.0220537765281 0.0237432254068 -0.0119577299382 0.0457560645428 -0.0514979685237 -0.0667659772655 0.0647101603692 0.0698320264869 -0.0588842773983 0.0215399390647 0.0614907788348 -0.0517115456806 0.0357637535202 0.0171694770518 -0.0338220894987 -0.0557652718898 -0.0177587609907 0.0189561437337 0.0433280578493 -0.0580133683001 0.0512144137458 -0.0582256325519 -0.0118643722614 0.018182164197 0.0534036209271 -0.0280336012671 -0.00405841263751 0.00840086440635 0.0704989278538 -0.0325039003087 -0.00592116116739 -0.00319130765864 -0.0263905663885 -0.025565420779 -0.0588000874993 -0.0692161872725 0.0283370150972 -0.0464750834418 -0.0442270374643 -0.0634165033888 0.0253971603472 -0.0360484289141 0.00558442876297 -0.026781937827 0.0138998314773 -0.0355289803524 0.0299555064218 -0.02718358566 0.0387849150728 0.0382857333136 0.0145876059174 -0.0427467363016 -0.0528023764596 0.00322544697789 0.0616921156091 0.00102873616124 0.0277890954688 0.0111673184859 -0.00430941443204 -0.0598031777002 0.0239758270277 -0.0356808425783 0.0320198062402 -0.00376191976203 0.0307748401754 -0.0440980946087 -0.0468544164855 -0.0385443592149 -0.0177105453091 -0.0434523358577 -0.00798723184478 0.0538049603891 0.0456216630443 -0.0323525662923 -0.000655155251916 -0.0279716770773 0.0187585419033 0.0051941027151 0.0473014734098 0.00276881070473 -0.00850486343756 -0.0010702743864 0.0414786947327 0.0333344867814 -0.0393245774917 -0.01451310307 -0.0555512609099 0.0338868141808 -0.0443197393259 -0.0492202778003 -0.028788086858 -0.0154346895302 -0.00648532181635 -0.0008632063763 -0.0639485690194 -0.00590100171258 -0.0214776437038 0.0583797060434 -0.00959197486073 -0.039687945064 -0.0266683882348 -0.0623525028265 -0.00187871262425 0.0592022901415 -0.017406977664 0.0223035338022 -0.0112986474981 0.0425916623841 -0.0270902819883 0.0421710051022 -0.0115237607484 0.0167503773255 0.0544417701565 -0.0468659943489 0.0632653631201 -0.0146932181066 -0.0652693188305 0.0360255947227 0.0214416157064 0.00985692281046 0.0240411644627 0.026036867181 -0.0444423450274 -0.0619999920038 -0.0351526034337 -0.0491358735284 0.0317296883359 0.0287964513622 -0.0354459111707 -0.0281005307794 -0.0569031478092 0.0349072677365 -0.0362900887391 -0.0124049768213 -0.0696526792593 -0.0159174698994 -0.057732627694 0.0391987220682 -0.054366576895 -0.0241882488716 0.0052244978147 -0.0350599100228 -0.00908683159148 -0.0452837100214 -0.0354791573184 -0.0140196686812 0.0602624870406 -0.0410823009947 -0.0257863964916 -0.0480039892625 0.0487604937898 0.0453178057387 0.0511993764642 -0.0607074725645 0.0184787716582 -0.0526667817598 -0.0195780429738 -0.0226432149062 -0.0240842250027 0.00294610479379 -0.0377252354963 -0.0610438488827 -0.0609630356322 0.0511627613079 -0.043743735505 -0.0654508065338 -0.0451443262059 -0.0188302630375 0.0618406952818 -0.0419543610009 -0.0560970275442 -0.0120815185249 -0.0467718352976 0.0507325896478 -0.00272668681494 0.0267566271107 0.0547621044823 -0.0585218662502 0.0399252505508 0.0370293865812 0.0377646810117 -0.0604717125154 0.0144121674801 0.052466780946 -0.0612806821204 0.0287618906801 0.0512808402004 0.0233265916596 -0.0600109417547 -0.0410100460103 -0.0205447478039 -0.0166841294141 -0.0028478542918 0.0681859724395 -0.0144610573971 0.0169018245835 -0.0217910352833 -0.0315891048783 0.0363163426771 -0.0267908579987 -0.050604276712 -0.0569874602207 0.051503330899 0.0383465840548 -0.02105693415 -0.0366972534335 0.0267837763618 0.0378512687738 0.0308870250536 -0.0315268390512 -0.0184622592675 0.0506962379639 0.037286435741 0.0610740465289 -0.0310441238387 -0.0328875541446 -0.0474536275051 0.0294485616814 -0.0292671492239 -0.041670170647 -0.013306511065 -0.0301366633051 0.0652701397136 0.0223644259058 -0.00326433283907 0.0208864910366 -0.0334856105014 0.00253364541159 -0.00785825810348
the 0.0934770717943 0.0818056198141 -0.103010491348 0.0126055967577 -0.100578778073 0.0687561079514 -0.0543509964825 -0.0192715149358 -0.0191647532875 -0.0105632296034 -0.104837840194 -0.0870575882404 -0.0992160705732 -0.0215639008334 -0.110634885257 -0.0384429099097 -0.0516288993703 0.0065252255476 0.0207752316405 0.0764957273098 -0.0379495874631 0.106933648494 0.0488676487287 -0.123327551001 -0.0626284964581 -0.0850493979689 0.0879172579351 -0.03479548205 0.0213158812069 0.00990715922342 -0.034798385812 0.0625724268974 0.0956346541772 0.105885513182 -0.04453125556 -0.134190228715 -0.0850463834608 -0.0863148980605 0.0661521459345 0.0265765514599 -0.113817558262 -0.0204127712822 -0.109668448928 0.0990119290082 -0.060553163206 -0.125239479328 0.125153863161 -0.0315301815839 -0.114042668766 -0.0517207611972 -0.0201596356242 0.0552082321297 -0.0669683450872 -0.0117017516878 -0.0877727037665 0.00504122217584 -0.0182779220838 -0.126648971089 -0.124392775944 -0.107765152399 -0.0817722517402 0.0963718105772 0.0377796943639 -0.0388905119478 -0.0655530881496 0.000442427863201 0.0810254475565 0.00993576751955 -0.0777859957614 0.0562305837577 -0.1387646808 0.0472290889082 -0.038323205951 0.0283236632755 -0.0843729932443 0.100696616125 0.125390995857 -0.124848725158 -0.133460327303 0.117468131266 -0.0385576708006 -0.11676851059 0.0980667780582 -0.0819138577803 -0.048736779517 0.0669021541696 0.114534379086 0.0420545060367 -0.0520491570946 -0.0905794593515 0.122824430842 -0.0958562640303 0.115228318467 0.0165803229108 -0.0384925275543 -0.101435727929 0.0480768767991 0.0227887858119 -0.00585680754661 -0.117025876907 0.0687786732833 0.00898655093133 -0.00694264524908 0.0527886141737 0.0360031181993 0.117209646009 0.126477579946 -0.0607058214627 0.0847427736875 0.0909912043614 0.118876435763 -0.061911465162 0.0774859725613 -0.0101013990259 0.0559240847661 -0.0361983714004 0.076972423037 -0.0571811292278 0.0457624199693 -0.0773835754691 -0.0811552681089 -0.0283142104921 0.0775223367334 0.0981967717886 -0.00546136651082 -0.109208088705 -0.00363458746947 -0.0571108083703 -0.0201698598252 0.00256724752545 0.111839236495 -0.048396111194 0.0815900371528 -0.0650647458127 -0.00984220038983 -0.0554225806281 0.089831818364 0.0912857177282 0.072000877607 0.0356706006076 0.0764023617173 0.02802590172 -0.101745648992 -0.0792132613821 0.0450169964168 -0.00101991581228 0.0568711979996 -0.0253438316854 -0.0105711726972 -0.0910600324025 -0.00984743572087 0.0114780302121 0.0128132274416 -0.078238971616 -0.062510822821 0.081051464478 0.0234147038968 0.122869086234 -0.0680908883485 0.086213974511 0.0840415145622 0.0626534126171 0.0250680625296 0.0213850261899 0.0011234570793 0.125522463336 0.00367126206649 0.038945858352 -0.109246965552 0.0242673508898 0.079475751073 0.0471821455756 0.110289307534 0.00386729523333 -0.119365797623 0.0282070574993 -0.0566935701472 0.0166488677472 -0.0720151134855 0.0477892998892 -0.090216434131 0.0112287428216 -0.0291175522459 -0.108294026061 0.0913017798238 -0.11968531957 0.0328939448274 0.117706559939 -0.0644238355469 -0.0457678063653 -0.0127074798413 -0.0404426334173 -0.0491739918896 0.0869722354099 0.12589967178 0.0624759468714 0.0936819536454 -0.0601205006099 -0.065041162393 0.0675246525921 0.0533701336111 0.110716578395 -0.062692502378 0.0829335047934 0.0154339048449 0.135144315149 0.0371146107873 0.108562305958 -0.0713105826664 0.103338553616 0.0593956512951 -0.00432410327056 0.0614778523646 0.0101576504296 0.0861372280953 0.0669016230568 0.0375437657609 -0.12294466737 0.0828426898731 0.0429790782223 0.0895493770638 -0.0978675998085 -0.081807563902 -0.0961361225359 0.110589924248 -0.0516505811466 0.0905556580275 0.0400323817717 0.0377962932469 0.0509128178175 -0.0228754804135 0.0720140163169 0.124087960851 0.120768422574 -0.0966192271815 0.0938190861081 0.11917349329 0.0905606190385 0.034115014013 -0.124439505936 0.0695105445698 0.105906001219 0.0329336516609 0.093189472281 -0.099609423053 0.0038446311516 -0.0398913148512 -0.103558680177 0.106162181279 -0.0816037330196 -0.0574227663538 -0.0827697735859 0.110881916358 -0.0230869595612 -0.102638177208 0.112123832953 -0.0538235416314 -0.114457217954 -0.0634674086007 0.116339240031 0.0928783550995 0.0382846564641 0.0390738527973 0.00249994694923 -0.125380474256 0.0295754126413 -0.02277971441 0.0516425469443 0.0705029652996 -0.0692652546782 0.04992933649 0.0998718055304 0.111365370804 -0.0964511612008 -0.0850463920567 0.0423524867582 0.0575969870282 -0.0405794201873 -0.0667144843134 -0.0597829577794 0.062348589354 0.0327932025307 -0.0885660530214 -0.073968716411 -0.116612012899 0.0636003128801 0.0687009814505 0.0928482100121 -0.0590540369795 0.0635688124188 0.0787085663155 0.0173585957152 0.0637577547775 -0.123608487045 -0.0354008858968 0.00301873554066 -0.0408519366718 0.0625782822387 -0.0189068158977 0.0113882185416
<bol> 0.0638911719598 0.0594418815345 -0.0736821530556 0.00938859021783 -0.0729185961573 0.0503847944185 -0.0370353299416 -0.0150577828193 -0.0149504306243 -0.00765684657555 -0.0731684755675 -0.0637377495908 -0.0729979916615 -0.0145800570784 -0.0813993493707 -0.0254100820674 -0.0360975685076 0.00393359119322 0.0137338467817 0.0554784377525 -0.0278764148934 0.0778141525387 0.034036817914 -0.0873676457074 -0.044727075237 -0.0611610318513 0.0609400375445 -0.0262966416302 0.015319058252 0.00581866669234 -0.0255466578357 0.0438314836312 0.0655293102929 0.0742734253457 -0.0318744341143 -0.0969707307524 -0.0632041870936 -0.0636868736209 0.0457100743004 0.0213606449805 -0.0798538000622 -0.0166394408563 -0.0777770346611 0.0718827471092 -0.0425903358494 -0.088203777286 0.0887715179455 -0.0223274709089 -0.0797125762378 -0.0345610340335 -0.0127670945644 0.0407843718545 -0.0497834671272 -0.00975055007144 -0.0602078443249 0.0048032007796 -0.0131124365389 -0.0902428438059 -0.0892486706915 -0.0760905945848 -0.0575742127455 0.0715185840888 0.0277723739132 -0.029295902336 -0.0487988834661 0.0016758347877 0.0574671736923 0.00607352458073 -0.0540743156101 0.0383188805117 -0.0999582783797 0.0313114276199 -0.0265442321175 0.0179886155825 -0.0613411065647 0.0725609674028 0.0898482945113 -0.0886534202324 -0.0968026458858 0.0850529847026 -0.0266213407916 -0.083197139633 0.0679110181174 -0.057402183707 -0.033270820739 0.0478625618143 0.0794430506088 0.0313060591996 -0.0362592176782 -0.0641538124659 0.0847064103258 -0.0679627851201 0.0805177891352 0.010302347725 -0.0286700628425 -0.0720166998806 0.0357368406194 0.0172124531729 -0.00570042740778 -0.0854617919113 0.0512876381123 0.00759483628144 -0.00411930537007 0.0379595824584 0.0260949813411 0.0820038410221 0.0904828150659 -0.0416730465092 0.0621776054614 0.0624307578031 0.0862988151738 -0.0450979576392 0.0516900100339 -0.00689048090944 0.0371866210823 -0.0243268321595 0.054667005727 -0.0423611971715 0.0350413688934 -0.0521401327846 -0.0567152342068 -0.0192662467664 0.0565860801437 0.0697568060187 -0.00268019587016 -0.0788368961205 -0.00520121546022 -0.0399168904413 -0.0171511171181 0.000704351376696 0.0812568743592 -0.0328583044093 0.0561302385271 -0.0461009838834 -0.00653507272387 -0.0392954797141 0.0654913022571 0.066297585345 0.0522547259289 0.02271829881 0.0548786605989 0.0200647704178 -0.0733438619658 -0.0585782454264 0.0338986485687 0.000426792701753 0.0398520241122 -0.016919990421 -0.00757448009112 -0.063149432689 -0.00651565764172 0.00935593472359 0.00916660000033 -0.0567712392779 -0.042468886366 0.0552344496277 0.0190460540451 0.0849762174825 -0.0465355980588 0.0623558623858 0.0611269636299 0.0439865874782 0.0175059872623 0.0146962453217 0.00113905593094 0.0894145560875 0.00435755755369 0.0266526467829 -0.0782623178296 0.0171459793097 0.0535772882931 0.0364277217711 0.0814448114978 0.000513780950826 -0.0853861256082 0.0205783909994 -0.0416158251111 0.0128357701392 -0.0518428784692 0.0310985717268 -0.0635296694741 0.00627886424846 -0.0208890523628 -0.0756695517939 0.068032102448 -0.0831635677259 0.0244142624688 0.0851214020899 -0.0464722619991 -0.0300359188379 -0.00720778437428 -0.0289337479114 -0.0362254139959 0.0590245146749 0.0901543351951 0.0453921152839 0.0694675576343 -0.0413583084502 -0.0452631964844 0.0491032179693 0.0354504860556 0.0797586283295 -0.0454399904371 0.0579315762404 0.0136863512625 0.0971192707341 0.0276399976605 0.0780160936416 -0.052650802715 0.0740918184652 0.0406243691816 -0.00152095663153 0.0423486943169 0.00889693186681 0.0590536946376 0.0487072904787 0.0243060856929 -0.0871092267108 0.0603997304867 0.0297029911624 0.0650189457844 -0.0717464228689 -0.0565869736608 -0.07118702753 0.0784494656733 -0.0361914257804 0.0651904122019 0.0290973327492 0.0296821708372 0.0352433881889 -0.0169471975715 0.0532319900146 0.0871531838518 0.0868684735429 -0.0693869349119 0.0655123550444 0.0862205667741 0.0624894589753 0.0241382129706 -0.0865094079858 0.0493343152829 0.0774398236706 0.0226074022397 0.0660835209269 -0.0712121006609 0.00108730352495 -0.0293985494449 -0.0728555096842 0.078504039714 -0.0590068656346 -0.0415922110871 -0.0584513916861 0.0816896904357 -0.0172452864361 -0.0726966915472 0.0813371480985 -0.0402559102931 -0.0806182822203 -0.044627507821 0.0826192142987 0.0634802207767 0.0288692577468 0.0260794348551 0.00306983336329 -0.0912852487773 0.0223863325196 -0.0186364274997 0.0351634537798 0.0487086425508 -0.0493545028339 0.0335170635843 0.0709204386875 0.0802658319312 -0.0713724120903 -0.061132614144 0.0291808801495 0.0430569701108 -0.0301287984276 -0.0483475314012 -0.0437500869808 0.0449577074594 0.0258663998222 -0.0645899612229 -0.0527662935547 -0.0846010705978 0.0472410174284 0.0479670054373 0.0657713388882 -0.0407336598812 0.0472621627347 0.0550669252595 0.011376351517 0.0429606282777 -0.0870164978992 -0.024101027866 0.00398844460359 -0.029911087813 0.0433145014439 -0.0126548147806 0.00815262261112
<eol> 0.105008834181 0.0968417528293 -0.122236498451 0.0178406680691 -0.118368603694 0.0782834797095 -0.0660746119284 -0.0253995786684 -0.0209986804571 -0.0129591396254 -0.120715609834 -0.0997183829803 -0.115543001755 -0.0233230302864 -0.131500181355 -0.0427483868451 -0.06248968897 0.00396605882471 0.0220317802659 0.0872541514256 -0.0437534642343 0.128095447304 0.0615713411454 -0.149049667469 -0.0732253695732 -0.0954882785849 0.100190688483 -0.0411502575717 0.0219857451488 0.0121218555607 -0.0399555720897 0.072302756671 0.10990815967 0.12020155796 -0.0479237454095 -0.157306617623 -0.104127059491 -0.102061916599 0.0808717953526 0.0304418207616 -0.132540695244 -0.0243834032532 -0.126501229674 0.116465943951 -0.068941322385 -0.143135375778 0.144102919166 -0.0374523496152 -0.130156600161 -0.0579793568168 -0.0245858281573 0.0628088838513 -0.0790016759835 -0.0156509064571 -0.101753688161 0.00500895153262 -0.0214629634901 -0.149247908915 -0.149051203098 -0.125454348511 -0.0943432044457 0.112866487608 0.0445488008115 -0.0460002765524 -0.0782901704273 0.00029376961027 0.0962907361361 0.0108755384401 -0.0901120728107 0.0624462489911 -0.165101470714 0.0548650145595 -0.0439937507078 0.034350304582 -0.0966912891807 0.117875558324 0.143426981724 -0.148090553545 -0.156061331143 0.137485152112 -0.0443789951167 -0.13544001303 0.114195272586 -0.0980293427343 -0.0570666150079 0.0795126335502 0.134439058007 0.0483390511043 -0.0633447818676 -0.107881305579 0.14027613255 -0.109047307312 0.13255136871 0.0193266456758 -0.0474800585047 -0.119084804919 0.0535713584607 0.0310482634459 -0.00723927746687 -0.139060123559 0.0848090661799 0.00867269324242 -0.00602291772759 0.0625630852827 0.0415691805542 0.136124993181 0.147692769126 -0.0725375729377 0.0992058286454 0.104553749754 0.13961171178 -0.0734547314442 0.0869563319404 -0.0119443245705 0.0644332563302 -0.0454401311933 0.0916156038644 -0.0669898229081 0.057184280859 -0.0861274312385 -0.0937297068629 -0.0289908564934 0.0888595981798 0.111175666202 -0.00429181999612 -0.124804109062 -0.00474190789707 -0.0675920674287 -0.0256246199208 0.00207776741115 0.132562314712 -0.0551723714069 0.0938927596849 -0.0731000472185 -0.0118938861487 -0.0663022727123 0.107249212157 0.10695517271 0.0816102331133 0.0428390932756 0.0891540169618 0.032419392843 -0.118246321604 -0.0943678541043 0.0526679625277 -0.00162152735411 0.0665699472906 -0.0264213176959 -0.0108756851152 -0.105193135775 -0.0110693016866 0.0105807502717 0.0154873298139 -0.0913207471246 -0.0751026051139 0.0929826424016 0.0299847077907 0.144751478485 -0.0780157406964 0.101798050562 0.0989585449153 0.072134758511 0.031685303666 0.0249125631071 -0.000480830072167 0.150207970151 0.00461235803452 0.0444352694874 -0.122973663129 0.0317230814069 0.0873999640267 0.0550261687732 0.132146260615 0.00253223441448 -0.141856996782 0.034405734067 -0.0670957114111 0.0204867230574 -0.080481361508 0.0548181481594 -0.107553297563 0.0133742091765 -0.0301423844486 -0.122768474928 0.109445220569 -0.137912571639 0.0385320009902 0.138818551576 -0.0754880774025 -0.0488681560691 -0.0125338769241 -0.0494581849653 -0.0556721454242 0.0994889172679 0.149639583529 0.0712549088197 0.111523368577 -0.068132503659 -0.0752449261404 0.0782349162416 0.0621977725171 0.128995302598 -0.070943478455 0.0954792624648 0.0214819564181 0.155148356835 0.0486234846872 0.123238499653 -0.081886272451 0.117539326423 0.068910520347 -0.000638259319176 0.0723126293102 0.0116989957846 0.0980914925802 0.0795275280641 0.0433323406439 -0.145539136496 0.0981536364484 0.0491817766325 0.105891370877 -0.116620945702 -0.0926916076835 -0.111972271977 0.128100306028 -0.0637563925727 0.10273217277 0.0510412898523 0.0466167662826 0.0592340522977 -0.0280536977798 0.0864923668986 0.147227651745 0.144664607255 -0.111867674372 0.111466143966 0.13708730639 0.103368251779 0.0411125618026 -0.142474481409 0.0784688850161 0.123042733441 0.0374811811626 0.1099187513 -0.118225918252 0.0040381886817 -0.0479398258755 -0.118481280366 0.127805492543 -0.0977554090164 -0.066558555511 -0.0956835811457 0.130697656482 -0.0238454854816 -0.118433107312 0.130783461618 -0.061709311541 -0.136252237138 -0.079737638562 0.132601627995 0.108621780516 0.0488022277164 0.0481713191218 0.00154778544117 -0.149484097279 0.0368860089629 -0.0290595549304 0.0598237525483 0.0825100414025 -0.077149189965 0.0563783984472 0.116152878912 0.128096460535 -0.113995808481 -0.099359461627 0.0505611317128 0.0695845608387 -0.0505959066781 -0.0777511315912 -0.0714876984797 0.0749596484003 0.0434080558019 -0.101956193704 -0.0899930429183 -0.138680797024 0.0743474572987 0.0818968656709 0.107419919368 -0.0703776275076 0.0755354108797 0.0941492239269 0.0172711178081 0.0716544828307 -0.147251630113 -0.0433530255563 0.00585205673669 -0.0478941652333 0.0759374150169 -0.0254897046398 0.0125545551412
to 0.0746963029494 0.0684498959097 -0.0828239613808 0.0119738218903 -0.0825292195698 0.0562790163145 -0.0455462366525 -0.0161065468717 -0.0155473004408 -0.00925087314572 -0.0837995306788 -0.0688699309383 -0.0802050732649 -0.0179480222075 -0.0891309416603 -0.0316881830155 -0.0417427055866 0.00442989101647 0.015423746143 0.0613643358598 -0.0314997738487 0.0867489415926 0.0426701303522 -0.102930065499 -0.0525005843055 -0.0674393317143 0.0707120215421 -0.0269746041779 0.015656058594 0.00665017308898 -0.0279704527605 0.0527928446882 0.0768949155679 0.0848493765973 -0.0330235494616 -0.107686788356 -0.0725175517449 -0.070910944659 0.0558839134308 0.0202669601054 -0.0937383527385 -0.015565058224 -0.0872361233791 0.0810845338288 -0.0479846901871 -0.0993258998763 0.101453465755 -0.0248690773761 -0.0924135515059 -0.0405216068867 -0.0161473318701 0.0447973518756 -0.0564346079015 -0.00958362940479 -0.0718767352222 0.00274558322474 -0.0142749590772 -0.102430985288 -0.103823664036 -0.0870434900749 -0.0646391933139 0.0791406242671 0.0314879795132 -0.0333575087097 -0.0559502540028 -0.000472009499716 0.0644149774831 0.00594335288336 -0.0618974484408 0.0432101536746 -0.112272740702 0.037461842951 -0.0313260900018 0.0221149083836 -0.0671482433498 0.0816228120224 0.101348800365 -0.101197338118 -0.109607744317 0.0971494054217 -0.032048099172 -0.0930999723107 0.0801689213236 -0.0671193253018 -0.0412148279804 0.055670611274 0.0927656863383 0.0337121557985 -0.0455827551115 -0.0738196301343 0.0984655780442 -0.0780418061365 0.0946685498563 0.011561591238 -0.0323481018248 -0.0824522113035 0.0399868781613 0.0219642817187 -0.00280002557161 -0.0959285816691 0.0582759962699 0.00824866175687 -0.00671248775013 0.0449339355259 0.0284619709813 0.0948573830659 0.100918503189 -0.0499773067544 0.0695752146967 0.0743069420885 0.0980315470433 -0.0516486294661 0.0600441404763 -0.00888352615326 0.0430082903683 -0.0317353692643 0.063522788788 -0.047784944926 0.0376656095705 -0.0602822255932 -0.0671972127777 -0.0226433760417 0.0645077353116 0.0787870069804 -0.00455813588894 -0.0889752790441 -0.0044681729829 -0.0455787126032 -0.0165010192573 0.000555993183998 0.091622145109 -0.0378123601426 0.0661109363367 -0.0520832656757 -0.0100540233121 -0.0457062290597 0.075036977723 0.0729655335705 0.0587229057383 0.0281115408186 0.0622515614122 0.0242709883887 -0.0829408335087 -0.0650354257463 0.0360933000693 -0.00117744994861 0.04638373463 -0.0179113971655 -0.00674109946733 -0.0725292859746 -0.00719053236248 0.00679977180248 0.00976741112142 -0.0622345186285 -0.04998325605 0.0642311566059 0.0193567411976 0.101466919162 -0.0553084937212 0.0701893500155 0.0677560079483 0.0505309732947 0.019665370675 0.0192448658591 -0.000470316347201 0.103672970577 0.00222608301956 0.0294294232552 -0.0860168529188 0.0222471863712 0.0620114386865 0.038504977231 0.0905081302451 0.00213373869485 -0.0994165838433 0.0229380057117 -0.0473733890007 0.0124959098137 -0.0580971247134 0.0377414329195 -0.0752235804616 0.00713260799772 -0.0207534888147 -0.0859589148815 0.0735272151754 -0.0962809616561 0.0265967877567 0.0949776254928 -0.0515735532641 -0.0342146637023 -0.0108106002052 -0.0315492983656 -0.0390273009011 0.0693025151431 0.102183252966 0.0512879779125 0.0777459002408 -0.0477459665261 -0.0533455499307 0.0543105927427 0.0412129693531 0.0896862978226 -0.0500768290712 0.0690232118003 0.0141945626429 0.109046518229 0.0325429267777 0.0874636726138 -0.0574551345247 0.083755980939 0.0488863324238 -0.00163751054439 0.0483400037656 0.00730753248848 0.0687761472676 0.0537626516476 0.0293753385099 -0.0999264617511 0.0695935116863 0.033605866437 0.0737026305661 -0.0797522520378 -0.0655437075962 -0.0777425064936 0.0888967778515 -0.0450985650235 0.0706147494512 0.0338699760448 0.0322246224894 0.0396670273366 -0.0194162246959 0.0599859275758 0.102283346425 0.0997174642754 -0.0794123872199 0.0754892388653 0.0967114788653 0.0733209230058 0.0289970654743 -0.099313969974 0.0549757497574 0.0863294652113 0.025683987487 0.0780325308462 -0.082592777512 0.00185099633494 -0.0312359073184 -0.0835473904092 0.0880114859966 -0.0678495745487 -0.0453195622116 -0.0684086682579 0.0914875912801 -0.0166459468684 -0.0843009944937 0.0916847959502 -0.0433193440893 -0.0942891744081 -0.0556457160196 0.0940451327798 0.0752242639134 0.0327668956368 0.0309481676542 0.00304714434046 -0.102876019921 0.0240404743567 -0.0206906477262 0.0422836452474 0.0577153806196 -0.053647595487 0.0387236035804 0.0830315216631 0.0891139615753 -0.0801716524508 -0.0699960944319 0.0344129761743 0.0484196169445 -0.0352277089503 -0.053986688039 -0.0474240793985 0.051414288533 0.0302058194598 -0.0710301456812 -0.0604000370137 -0.0957451965756 0.0528190285199 0.0551018156639 0.076685113485 -0.0482079431223 0.0533581067267 0.0648222819185 0.013645653128 0.0505599862458 -0.0994686474591 -0.0282568196003 0.00180797442122 -0.0337977996406 0.051641254789 -0.0174464776689 0.00940617358835
of 0.0092326393668 0.0116274677547 -0.0131090210114 0.00358436125002 -0.010878744114 0.00645352283099 -0.00808412236012 -0.00450639255262 -0.00157552985116 -0.000854781073781 -0.0127413620205 -0.00820107575992 -0.0110895680514 -0.00326724808639 -0.0136222904376 -0.00643539494033 -0.00760171000699 0.000101473963908 0.00080872867918 0.00900417598421 -0.00239918578415 0.0149079071901 0.00717468138983 -0.0178888292763 -0.00842253887494 -0.00956845387766 0.0117855353044 -0.00524255995811 -0.000529423501013 0.000662950133299 -0.00429107571353 0.00712916637758 0.0129253377541 0.0124005432417 -0.00255860310431 -0.0159123430254 -0.0122772173403 -0.0112266823442 0.0115901724644 0.00193903874664 -0.0158021499966 -0.0039146159878 -0.0122001792096 0.0106365277819 -0.00879938842898 -0.0148001888446 0.0157035714641 -0.00527395846265 -0.0118347895543 -0.00367523879163 -0.0034455673297 0.00431935398061 -0.00925449684069 -0.00340203664643 -0.0126159814035 0.000678285947113 -0.00309849807259 -0.0163675954726 -0.0173414177224 -0.0131398923234 -0.0102993168003 0.00986770733749 0.00421096422165 -0.00552262259169 -0.0101791362464 -0.0013946050588 0.00779496446755 -0.0016835944131 -0.00950937930937 0.00539462982721 -0.017530777441 0.00436289642361 -0.00195302586742 0.00556493714816 -0.0103557939475 0.011987750932 0.0126851914911 -0.0145959585908 -0.0159029230954 0.0161752721902 -0.00337333105331 -0.0124874655897 0.0121135054024 -0.0128929091468 -0.00769718926008 0.00768502606138 0.0157746550717 0.00486539087614 -0.00847741140253 -0.0137144339357 0.0145067241115 -0.00938813492891 0.0141967208051 -0.000390287929699 -0.0053688204936 -0.0128270340786 0.00607326957782 0.00621519598271 0.00123966624334 -0.0139107770359 0.0110901037965 0.00196015869304 0.000658212210998 0.0048738426482 0.00247757772892 0.014890471201 0.0148840188956 -0.00916410150081 0.0100587941773 0.0104752508169 0.0132066679333 -0.0102966846925 0.00993279381564 -0.00344789270203 0.0063460631297 -0.0077938483118 0.010490054636 -0.00799772300306 0.0071946272195 -0.00809676174899 -0.0104898613557 -0.00169745067281 0.00727272764567 0.0102936780629 0.00169532232517 -0.0107177711913 0.000218276196351 -0.00752962723365 -0.00237463258748 -0.00161820609768 0.0138007374975 -0.00657453948247 0.0100712735538 -0.00974404943782 -0.00339047388965 -0.00806025723675 0.0128128056411 0.0104580967743 0.0070311697075 0.00609959069455 0.00988804526016 0.00313436945017 -0.0119832162342 -0.010589644976 0.00263574019229 -3.77958520769e-05 0.00778821942578 -0.00188888753055 0.000354073896029 -0.0103726909341 -0.00257035127452 0.00121850897268 0.00355692557335 -0.00984734994075 -0.00814970977765 0.0118030603233 0.0043276689341 0.0162806353799 -0.00587697907453 0.0119801682462 0.0090525785715 0.00844040897843 0.00426746189853 0.00456476404857 -0.0012999150577 0.0157145254603 0.000177610516682 0.00302331999123 -0.0103925573563 0.00468633005173 0.00762799975358 0.00680976598589 0.0151769188244 0.000702170527107 -0.0152410846114 0.00281255742814 -0.00914685078074 0.00304883729071 -0.00595596651217 0.00471854256735 -0.0127014438407 -0.000302645976211 -0.00079397877468 -0.0127468828274 0.011991103805 -0.0144410481546 0.00262824538627 0.0131686209239 -0.00767390745587 -0.00530167226823 0.000488640453482 -0.00695463531277 -0.00599608064004 0.00943373384582 0.0186259185498 0.00533507794657 0.0121386751183 -0.00551869911653 -0.00862256476838 0.00803859044829 0.00545515228959 0.0129893842156 -0.00471708075391 0.0102076562518 0.00376142136734 0.0162267875633 0.00711727692301 0.0118976983742 -0.00957862672689 0.011496841835 0.00862935487853 0.000910550433351 0.0066807726694 0.000698925275185 0.007799283574 0.00742648802288 0.00713607856468 -0.0150653761877 0.0122850558175 0.00279157841125 0.0115545505469 -0.0129949772956 -0.00996823733221 -0.0131754168869 0.0117387887809 -0.00829519698795 0.00958650743139 0.00831109970178 0.00550569494746 0.00585115641752 -0.00543475367169 0.00988215394043 0.016970274227 0.0165422818238 -0.0115228556229 0.0132552457784 0.0141282622498 0.00922655716812 0.00382042578786 -0.0142339528381 0.00549520370718 0.0122533445281 0.004494043552 0.0124904106835 -0.0118070134832 0.00196450927328 -0.00332519652719 -0.0128074084478 0.0143172699533 -0.00988975245063 -0.00344777754062 -0.0093109376474 0.0141692068127 -0.000869892319417 -0.0122079418781 0.0155365617285 -0.00687969318616 -0.0159962065449 -0.0112540457014 0.0120169235197 0.0133411152628 0.00578731700372 0.00742371099835 -0.000540968299178 -0.0170289655846 0.0060503649861 -0.00337430710316 0.00773867272583 0.00825916905142 -0.00774174839246 0.00374812872748 0.0107639701622 0.0142117281434 -0.0103837344329 -0.0112360913639 0.00588322458141 0.00636538217507 -0.0042122971553 -0.00964863985792 -0.00804261307076 0.00918513813106 0.00541703614697 -0.00989916392603 -0.0111943759582 -0.0166093680074 0.00746378453905 0.0108696204464 0.0116457097693 -0.00786934913912 0.0107959183702 0.00977260215449 0.0011563303065 0.0090187977848 -0.0176277487169 -0.00315679335727 -4.58427323561e-05 -0.00641534151565 0.00628300425205 -0.00586646573557 0.00115630423855
in 0.0226917125628 0.0213778469896 -0.0258499802237 0.00505888861803 -0.0239728048034 0.0153980469803 -0.0126042212212 -0.0063080163004 -0.00588434795789 -0.00457610010214 -0.0247622672312 -0.0193455174416 -0.0244902606728 -0.00687527555767 -0.0260546697917 -0.00974122581451 -0.0125771735021 -0.00015870597119 0.00591644064544 0.0197018474676 -0.00740056473705 0.0249695123265 0.0128673680594 -0.0321097761232 -0.0159274379741 -0.02050109591 0.0215726682266 -0.00718553084711 0.00383183814472 0.00408234132337 -0.00778092532672 0.0160624182836 0.0236721642033 0.0241723402183 -0.0101274993141 -0.033773442455 -0.0227526443731 -0.0216104017919 0.0165945433753 0.00546941277089 -0.0264730226993 -0.00520593837645 -0.0245601187519 0.0229070157945 -0.0141225773874 -0.0278947212733 0.0310753753105 -0.00657540630894 -0.0259117804091 -0.0113408319042 -0.00349582738298 0.0117663890635 -0.0178469700624 -0.00463707188369 -0.0223541841477 0.00240652496038 -0.00262243287906 -0.0291954739744 -0.0309693166437 -0.0265639848915 -0.0194492735943 0.0228116717503 0.00829512937852 -0.0091342144589 -0.0179187207211 0.000175742857833 0.0188816872819 0.000910884776033 -0.0168258613841 0.0129274839382 -0.0341882759012 0.0120448399466 -0.00761645428678 0.00779384341954 -0.0214791361749 0.0228973828363 0.0286680218264 -0.031448837349 -0.0310051969555 0.0295767094724 -0.0101104719866 -0.0294138060713 0.0227454414981 -0.0220138994071 -0.0127163779851 0.0161538625372 0.0290656709135 0.00897634503916 -0.0138391273504 -0.0232860201238 0.0301462629022 -0.0212976974184 0.0264682110032 0.00178193731819 -0.0113828512472 -0.023455625818 0.011336932888 0.00513548469452 0.000113497314616 -0.0271147164992 0.0187534869965 0.00283360635141 -0.00329708673395 0.0120286664476 0.00829141068858 0.027313405009 0.0286980046491 -0.0137222923591 0.0220258763952 0.0204144643385 0.0271768943742 -0.0166027776118 0.0165866961333 -0.0032189424507 0.0147947414671 -0.00940240622661 0.0187213705961 -0.0132712981331 0.011417755999 -0.0176115069368 -0.0196682617427 -0.00561830674934 0.0182451483525 0.0225723637284 -6.07723882994e-05 -0.0247763098062 -0.00247992928774 -0.0137053583369 -0.00682914498267 -4.82583100649e-05 0.0269863086109 -0.00990066492967 0.0208471620764 -0.0166773703277 -0.00288990289278 -0.012551837064 0.0227312279395 0.0226449324057 0.0182280683924 0.00771747007321 0.0177381191356 0.00801553712239 -0.0237592925997 -0.0179822065205 0.0099155848731 -0.000935395736124 0.0144387730313 -0.00468260234408 -0.000928186778694 -0.0208268640965 -0.00136555370071 0.00110036777249 0.00491639587616 -0.0180631971919 -0.0161436882507 0.0207854889081 0.00522235114742 0.0313529542957 -0.0153701060011 0.0221419050169 0.0196748517201 0.0156824966499 0.00766446039899 0.00606211601706 0.00144177211803 0.0311615918654 -0.000256567907759 0.00798400723583 -0.0238029542917 0.0072670792226 0.0163472361676 0.0123613765336 0.0258620722225 0.00081845637173 -0.0298132236472 0.00757272899496 -0.0160834205933 0.00371303268888 -0.0158480393022 0.00997041566207 -0.0225186237209 0.00342159883725 -0.00696864232225 -0.0241697429898 0.0239601902584 -0.027112044744 0.00857191899968 0.0272328040815 -0.0141621108925 -0.0093592899621 -0.00335026809307 -0.00979429931653 -0.0132565987641 0.0208308918702 0.0319212942557 0.0142331074982 0.0245670097168 -0.0142060439473 -0.0143880881627 0.0146218221051 0.0135835033018 0.0273710172025 -0.0129569812458 0.0210511822179 0.00273858883735 0.0334525075529 0.0115825617404 0.0250851481078 -0.0186192171511 0.0231225961203 0.0132687271642 0.00140660207734 0.0156522935819 0.00187633295683 0.0188870132807 0.0175321701429 0.0109432156328 -0.0299278915208 0.0201356231984 0.00948738316162 0.0222955033397 -0.023594568614 -0.0195476494776 -0.0226006389248 0.0251965306425 -0.0150075651723 0.0201471899094 0.0104473523946 0.00923300641318 0.013391977285 -0.0071824956731 0.0169168199969 0.0293803371837 0.0305124150376 -0.0237758896533 0.024583191153 0.0273697030605 0.0223960517145 0.00898173376794 -0.0286052051425 0.0154205894818 0.0265647775794 0.00777332997445 0.0234455858041 -0.0248750593556 0.000401607418318 -0.0093412441132 -0.0237155970074 0.0274884294587 -0.0212749889413 -0.0125997878015 -0.0207903216135 0.0251775400808 -0.00553501077462 -0.0254700966463 0.0281803361536 -0.012755936262 -0.0299901834502 -0.0182619229401 0.0265603806991 0.0239437662567 0.0102553667831 0.0100660164567 -0.00114061427698 -0.0302592817633 0.0079791739389 -0.00455081584821 0.0123029749414 0.0155580391737 -0.0152540673362 0.0128729800832 0.0254161897135 0.026899682138 -0.0227261790651 -0.0225090275987 0.0113310177119 0.014912751379 -0.00830299046373 -0.0144731679301 -0.0161549492663 0.0155719711547 0.00970746344327 -0.0198849592962 -0.0184995271003 -0.0286755719587 0.0155183481422 0.0174570324118 0.0215418038328 -0.0136586519394 0.0167774662463 0.0198742883783 0.00347835700664 0.0146512197619 -0.0309075292961 -0.00801090471387 0.000333165794292 -0.00899632021101 0.0145671953341 -0.00699219992966 0.00333846199245
a 0.059350404215 0.0534330423835 -0.0688962273913 0.00903485846914 -0.0652859103442 0.0441764203358 -0.0363275844873 -0.0112466866442 -0.0103943882456 -0.00709939941044 -0.0661027419492 -0.0550454007391 -0.0662169815216 -0.0152873039415 -0.0717426958354 -0.0259336215455 -0.035543058839 0.0046900002963 0.0128885160028 0.0499334255611 -0.0229854011357 0.0701079575791 0.0347858324789 -0.0830783916652 -0.0396760257412 -0.0528751152342 0.0562880739947 -0.0206859562692 0.0115906619509 0.00569791734262 -0.0221263724382 0.0415911530435 0.0630284938376 0.0672933050211 -0.0280579000308 -0.0870839876687 -0.0566405826208 -0.0574513447896 0.0427814917954 0.0163081670936 -0.0754424356572 -0.0128266267674 -0.0723123859186 0.0632782404231 -0.0388378001657 -0.0793684011068 0.0811138739059 -0.0213302241653 -0.0736170359772 -0.0343302269578 -0.012506901779 0.0365643897847 -0.0437834462369 -0.00651777145148 -0.0584996400685 0.00122212575094 -0.0105478854295 -0.0823217791528 -0.0812147715666 -0.069722059812 -0.0523655414997 0.0638283227744 0.0242046148009 -0.0252320010794 -0.0454636288945 -0.00185936283179 0.0516693768863 0.00441896660283 -0.0485854469552 0.0368069867932 -0.0926857981195 0.0304173210427 -0.0232136964059 0.0180859259387 -0.0554823660639 0.0674504387678 0.0800820570957 -0.083333732196 -0.0873087985114 0.078324491258 -0.0262736111198 -0.0771490753199 0.0623964746473 -0.0538199724109 -0.0326661592218 0.0442004882054 0.0756122947372 0.0268104844922 -0.0355089194222 -0.060635797142 0.0805961622884 -0.0626202623547 0.0749094670273 0.0092312641018 -0.0262497499803 -0.0648713011741 0.031753241227 0.0157777406155 -0.00385314599889 -0.0781105557295 0.0454315411819 0.0066078521934 -0.00423493588497 0.0344559847615 0.0220928229363 0.0760115722533 0.0821791296109 -0.0385607543232 0.0557779901306 0.0573970158858 0.0771921373155 -0.0425857137336 0.0477687445803 -0.00830127361151 0.0346760174208 -0.024725272941 0.0490469445322 -0.0358171588459 0.0315962322448 -0.0492488449093 -0.0532411247456 -0.0155856735239 0.0514954610427 0.0619414817199 -0.00348361031172 -0.0693695296833 -0.00152410060018 -0.0353294522788 -0.0132696150735 0.00138430957907 0.074726090437 -0.0303523444596 0.0533578586397 -0.040240749498 -0.00595933223714 -0.0372452325165 0.0591533337121 0.0599687426205 0.0470536474508 0.0244541120511 0.0502705568545 0.0191541364326 -0.0653069603382 -0.0526191494421 0.0294502106265 0.00086088074467 0.0360109940085 -0.0168652994824 -0.00654800044865 -0.0575080863553 -0.00780742416384 0.00738520353814 0.00972927277516 -0.0503703645337 -0.0411118932499 0.0525928137545 0.0152450784095 0.079027011828 -0.0447825671147 0.0545935433511 0.0553307745334 0.0418186611951 0.0178024077364 0.0128374222212 3.59003281918e-05 0.0822500239644 0.00194215432867 0.0236538094 -0.0682980106496 0.016475616881 0.0507964140478 0.0313068740665 0.0720202925191 0.00351740223663 -0.0781004879439 0.0183701753685 -0.0393270734597 0.011252544681 -0.0446446461132 0.0312671527061 -0.0590788130802 0.00596878218331 -0.0170208750053 -0.0680617781152 0.058497254524 -0.0770806369397 0.0226725522775 0.0779451469782 -0.0410465837036 -0.028355596208 -0.00638265984293 -0.0281496802552 -0.0307743139193 0.0573294259349 0.0815143505371 0.0387323289487 0.0607992394022 -0.0401510652562 -0.0427179112807 0.0444783427026 0.0350683597303 0.0712456587633 -0.0386957170051 0.0543596755878 0.0111660754038 0.0876426375978 0.0270332095969 0.0702138737268 -0.0463932065602 0.0664938280318 0.0371509608483 -0.00206880167766 0.0385536802822 0.00651799079531 0.0536081043514 0.0430859504262 0.0260631498975 -0.0792625477548 0.053246047334 0.0258099946436 0.0583835031292 -0.065670514682 -0.0521106317468 -0.0622505557149 0.0708409259099 -0.0336190614069 0.0562025362433 0.0282846484139 0.0242706288788 0.0312028982699 -0.0175120041902 0.0469698759726 0.0806526075878 0.0796198554703 -0.0619909384685 0.062684370798 0.0781533076628 0.0573747461406 0.0227725988858 -0.0810045470921 0.0435330095937 0.0704687874386 0.0229077047367 0.0618455428882 -0.0662647909228 0.00196516824537 -0.0256338448945 -0.0651033576188 0.0693991851787 -0.0521034527488 -0.0365430109116 -0.0557417490582 0.0723052362587 -0.0154255700122 -0.0672184294271 0.0735002553129 -0.0334942770348 -0.0770251142415 -0.0443746607408 0.074231907942 0.0610383432521 0.0262770377988 0.0242457013993 0.00282940866544 -0.0827172316585 0.0187471656794 -0.0155455704867 0.0352086677758 0.0445618140948 -0.0437549062434 0.0303584409169 0.0635356190809 0.0718776467791 -0.0620811447785 -0.0539843674078 0.0294755594405 0.0367236003328 -0.0258733596032 -0.0425552247565 -0.0390264466173 0.0412331241796 0.0242858318719 -0.0559885262157 -0.0496368931106 -0.0773716486247 0.0419089346519 0.0446728385419 0.0622272427586 -0.0386506613835 0.042853635185 0.0516230407324 0.00960716539944 0.0393448173375 -0.0820727735274 -0.0227211540525 0.00176884247154 -0.0257173558427 0.0410361122206 -0.0135768802861 0.00538172865819
and 0.0486782718456 0.0436087849288 -0.0578756906247 0.00735089874001 -0.0557094601259 0.0366640837066 -0.0316745179378 -0.0108207057851 -0.0106307372245 -0.00789423418852 -0.0551754140367 -0.0468921618462 -0.0541263364162 -0.012886375206 -0.0595477217874 -0.0212175239839 -0.0283061433404 0.00117318035729 0.00981670452461 0.0425632763559 -0.0192381908986 0.0599482364828 0.028332672953 -0.0702892100945 -0.0341590420431 -0.0435382664952 0.0463273956802 -0.0179528344707 0.0116713043073 0.00617279752607 -0.018746602511 0.0339414754735 0.0512454695274 0.0581616737411 -0.0222050733107 -0.0714261370954 -0.0493808416768 -0.0473140398074 0.0377386522551 0.0144893615408 -0.0617889801318 -0.0129914723927 -0.0585274592077 0.0530494324651 -0.0332140595439 -0.0664384497278 0.0666229355827 -0.018518089329 -0.0612158761362 -0.0258065768579 -0.0120212869973 0.0287131417102 -0.0379953992411 -0.00540671015519 -0.0465831248806 0.000842093068169 -0.00960121313051 -0.0694143305657 -0.0690529672781 -0.0577539825362 -0.0421258291068 0.0536339105878 0.019149752605 -0.0219036991872 -0.0383769884443 -0.000967043657973 0.04348875995 0.00626300016548 -0.0419553547424 0.0285524073729 -0.0758974993588 0.0261986851537 -0.0186853350295 0.0171360153929 -0.0441967648192 0.0564131055616 0.0667885366552 -0.0666298532636 -0.0728296235517 0.0648448486082 -0.0207215729632 -0.0632017320006 0.0543345479451 -0.044885153548 -0.0264357269491 0.0368094307762 0.063189876318 0.0245855725648 -0.0307571972674 -0.0485861184674 0.0650514531049 -0.0505395140535 0.0607448796176 0.00767329150599 -0.0232019746714 -0.0550207446066 0.0253606711507 0.0150887580743 -0.00127273202323 -0.0628834992689 0.0399339762744 0.00551831514566 -0.00401573362408 0.0302763926912 0.0188833402339 0.0633465151826 0.0694983805908 -0.0316375356277 0.0461157288151 0.0502931757254 0.0656015336394 -0.0344885589789 0.041141132688 -0.00727606073178 0.0288241416965 -0.0221964478869 0.0416254871332 -0.0300426612157 0.0244246495044 -0.0399856313938 -0.0446952971532 -0.0130984408755 0.041361945945 0.0526957428008 -0.000729908719524 -0.0600188144407 -0.00410035331675 -0.0323672790221 -0.0117980216402 0.000752399971287 0.0619557498118 -0.0255818143125 0.0450338809816 -0.0347382164089 -0.00539234801105 -0.0301342311193 0.0491256959579 0.0483279306513 0.0383656051379 0.018484683822 0.0394851545865 0.0147114362169 -0.053454809835 -0.0427373664119 0.0231779688977 -0.00175889767525 0.0305816966913 -0.0119262425801 -0.0066577908927 -0.0488742845736 -0.00729377607593 0.00459013628041 0.00794422796297 -0.0412110964885 -0.0354189564056 0.0448451985771 0.0148642600931 0.0683999469946 -0.0365865732759 0.0459346706361 0.0447273610407 0.0330136514038 0.0149494025002 0.0125329699633 0.00145491228344 0.0706216557203 0.00304832927579 0.019838020313 -0.0560951235266 0.0152531873664 0.0407070344805 0.0267238197474 0.061404440451 0.000815633727741 -0.0647312548611 0.0167131937481 -0.0330922375853 0.00976567182977 -0.0370486139947 0.0253604677345 -0.0509985239183 0.00456614316614 -0.0130995583871 -0.0573524855269 0.0510814568335 -0.0638711476007 0.0182863894374 0.0627569100037 -0.0339625722143 -0.0242491373185 -0.00533087556464 -0.021053837198 -0.0267120824958 0.0447416174468 0.0683123507345 0.0325271088115 0.0510624281981 -0.0326347719279 -0.0337293019308 0.0362034470049 0.0271867467126 0.0587354359088 -0.03171600198 0.0450744185788 0.00785567319688 0.072972492348 0.0208166535057 0.0565626441216 -0.0398195696085 0.0556500741991 0.0324638230976 -0.00131699598977 0.0337769977068 0.00616039708064 0.0471287208026 0.0350096515586 0.0222332120381 -0.0660446129672 0.0456406512485 0.0224652237701 0.0501994960198 -0.0541875062059 -0.0420372665898 -0.0533521661582 0.0577600069323 -0.030019245214 0.0461992524199 0.0238411318933 0.0226443391432 0.0268993363694 -0.0155134074787 0.0386408738469 0.0686980403876 0.0649506963253 -0.0504842847229 0.0503974948144 0.0653034775427 0.0470998525323 0.0194240595597 -0.0685237068092 0.0382421717091 0.0587986319158 0.0175050048122 0.0525333108395 -0.0537125381537 0.0026880552635 -0.0213370458665 -0.0555321354804 0.0598743295341 -0.0440250571662 -0.0290170428659 -0.0464235611207 0.0601583994904 -0.00986723330951 -0.0567565567852 0.0594695398376 -0.0282099284456 -0.0640229103805 -0.0363545090779 0.0636045714694 0.0497957843058 0.0228478473506 0.0211012992038 -0.000165026532161 -0.0684934135499 0.0169876723017 -0.0135956542463 0.0298493929968 0.037353038627 -0.0351877959577 0.0266510021681 0.0529491161812 0.0602979647425 -0.0538791878623 -0.0460652197426 0.0241581351916 0.0312528439339 -0.0222708732303 -0.0374886636566 -0.0316592447189 0.0343733157539 0.018825570436 -0.0454176109417 -0.0409892873378 -0.0634633160701 0.0331839872507 0.037261367022 0.0520482663503 -0.0313117017673 0.0358992917654 0.0422840319055 0.0092220938621 0.0354448985307 -0.0682614680611 -0.0209503883488 0.00113152987194 -0.0230595556562 0.0358994122478 -0.0127551925707 0.0040460749902
is 0.0215575786167 0.0179863116182 -0.0240297038391 0.002448169493 -0.0231970438832 0.0173704235334 -0.0119738252198 -0.00357570246674 -0.00419668349862 -0.00348966261498 -0.0234869367998 -0.0196054627185 -0.0243657543631 -0.00615602531992 -0.0240559231729 -0.008708640194 -0.0118649252636 0.00180116445459 0.00404790573916 0.0159256245829 -0.0076275426059 0.025520351733 0.012060442877 -0.0287632839611 -0.0134718572604 -0.0201997676846 0.0201991318147 -0.00713989128962 0.0049233040594 0.00254630948485 -0.00863215620248 0.0134250447782 0.020248113498 0.0251990776566 -0.0087897533142 -0.0299681380139 -0.0192038212558 -0.0188655702113 0.0169861143915 0.00511648870137 -0.026796915448 -0.00328878188397 -0.0264883515381 0.0226810558856 -0.0143624893658 -0.0284525133653 0.0268066254355 -0.00776721508786 -0.0268956796252 -0.0116311433004 -0.00435751211208 0.0132066323539 -0.0158749736432 -0.00158350638732 -0.0185554649904 0.00150683440683 -0.00390165965044 -0.0279592363043 -0.0271746636596 -0.0260224986872 -0.0176225408054 0.0208990255978 0.00796671437005 -0.0076990760107 -0.0135047636613 -0.000561975581778 0.0202296966134 0.000840472122944 -0.017480321275 0.0113200549336 -0.0301738326614 0.0100941362391 -0.00798117392607 0.0075211366963 -0.0191201310218 0.0225693307928 0.0288330511271 -0.0274193310076 -0.0300196866107 0.0268434171851 -0.0102580996971 -0.0273152692102 0.0239553990551 -0.0196459614307 -0.0112125127951 0.0163521670687 0.0265462022646 0.0110055118381 -0.012137145072 -0.0208502355161 0.0267570839456 -0.0224329333409 0.0275117092583 0.00236462014618 -0.00871367268983 -0.0229441789292 0.0102123386329 0.00556814406318 -0.00190673911968 -0.0270880785831 0.0170351299433 0.00182882972853 -0.00344223817458 0.0114404172279 0.00654383326485 0.0257475750036 0.0275870664269 -0.0123614757672 0.0191327832446 0.0202263020097 0.0279514780589 -0.0138514348675 0.0177251033491 -0.00224001987001 0.0139410552775 -0.00722581715692 0.0160926236922 -0.0133856859903 0.0103515029479 -0.0164370756792 -0.0169719943799 -0.0068374004649 0.0185028240036 0.0235166229987 6.03214745586e-06 -0.0254787474296 -0.00263713662531 -0.0131867858775 -0.00583833765463 0.00173877673327 0.0263857048026 -0.0109002724516 0.0180827656584 -0.0148415477921 -0.00390948023389 -0.0137346794047 0.021888072041 0.0208615967412 0.0156689713475 0.00738484927649 0.0177714546659 0.00653410903411 -0.0241776217839 -0.017051750708 0.00908329425776 0.00100459578942 0.0130327762356 -0.00525374946027 -0.00149403119727 -0.0201960919491 -0.00352514418302 0.00164392401569 0.00218863016698 -0.0167161697667 -0.0129750549058 0.0193030815383 0.00638900832117 0.0266765325545 -0.0173616368586 0.0180466577995 0.0187660130928 0.0149841264579 0.00595084397004 0.00391309425443 -0.000720824072895 0.0303124435941 0.00209841490965 0.00946846733272 -0.0231524879232 0.0045445764527 0.0171687132963 0.0119696669109 0.0261559820521 -0.000363287930792 -0.0269960451152 0.00682211393333 -0.0124151645752 0.00402853933299 -0.015432463655 0.0106370782333 -0.020160518977 0.00105996631623 -0.00522210833129 -0.0245987614988 0.0214891531084 -0.0280044843927 0.00658381857266 0.0251908681946 -0.0131631413246 -0.0085005087482 -0.00271604053456 -0.0084495069402 -0.01223724852 0.0180094888061 0.0272696603072 0.0156499599784 0.0201939803836 -0.0129868153404 -0.0144725076138 0.0166892747102 0.0104976500426 0.025634914486 -0.0150691284153 0.0198686020928 0.00222497764121 0.0300864241748 0.0103561726736 0.0251797945503 -0.0161181135197 0.0231971505203 0.013585780552 0.000878882284838 0.0129472614068 0.0022386753136 0.0182730843218 0.0167712722566 0.00976985034681 -0.0281324778316 0.0170879671048 0.00999075245444 0.0200437238181 -0.0231703435659 -0.0169214148032 -0.022724579406 0.0250644825423 -0.0128291670436 0.0205422555987 0.00829596347836 0.00951516035799 0.0113418790366 -0.00417681234608 0.0154717302633 0.0297736470258 0.0284253509534 -0.0224033019897 0.0218838254592 0.0264061882242 0.0198150504851 0.00644895968866 -0.0278892897017 0.0167224286223 0.0243432111481 0.00879237935047 0.0216192345981 -0.0223668694049 0.00211233133248 -0.00856789568998 -0.0218614452751 0.0258427759098 -0.0186365185972 -0.0149866014481 -0.0176128968335 0.0249072636041 -0.00459021013249 -0.0244619492203 0.0256972432756 -0.0135208309651 -0.0246370247004 -0.0141643657419 0.0280450096741 0.0209650505862 0.00940172893453 0.00740808051857 0.000317622047442 -0.0280338362376 0.00747529968827 -0.00652071701552 0.0121400377054 0.0176099134347 -0.0160695163068 0.0118251578196 0.021540400101 0.0252646308712 -0.0219174802995 -0.02023258609 0.00899874855408 0.0142095492178 -0.00853251817294 -0.0167696214918 -0.0134466173364 0.0156212648669 0.00868424455348 -0.0213010641319 -0.0173766281554 -0.0264108866681 0.0151033130432 0.016569595731 0.021782665533 -0.0138353958682 0.0155101584316 0.0193242656338 0.00285522051794 0.0160010737892 -0.0283285085541 -0.00898792754731 0.00181411643728 -0.00851547639966 0.0158438195762 -0.00418124055099 0.00313463931154
that 0.013432516405 0.0101431414338 -0.0135283476384 0.00296030567909 -0.0149642959391 0.0109559978974 -0.00858992504013 -0.00260521753405 -0.00166573843077 -0.00236438313034 -0.0130937744759 -0.0127778325689 -0.0137214126097 -0.00297386701604 -0.0139783556191 -0.00667641967288 -0.00749003120048 0.00167675190558 0.00200664369767 0.0110671522827 -0.00612454650771 0.0129227033383 0.00649734208922 -0.0181217602678 -0.0079501801943 -0.0116510615929 0.0103184517411 -0.00375727881111 0.00303412145514 0.00124031763721 -0.0050155357765 0.00714748571476 0.0132953613861 0.0128427022834 -0.00634812181894 -0.0191257793537 -0.0106539998803 -0.0116319540618 0.0101899906928 0.00376968711076 -0.0156090470972 -0.00230641960829 -0.0146443922229 0.0138907835462 -0.00911376360248 -0.0147327484167 0.0178065243861 -0.00362697482681 -0.0143053625241 -0.00575063244115 -0.00364804738258 0.00737223440165 -0.0080561801029 -5.84175319248e-05 -0.0119814793435 -0.000979968390688 -0.00273307513968 -0.0166136371288 -0.0175457534121 -0.012915470659 -0.0105403179159 0.011612003411 0.00479726165004 -0.00493220307538 -0.00974983553707 0.000200962706333 0.0109135648164 0.00276106806965 -0.0101633962791 0.00720782446814 -0.0182819003112 0.00757434750878 -0.00372951603615 0.00270475253148 -0.011525412709 0.012073916054 0.0167799799085 -0.0160002939943 -0.0195245276714 0.0165950951296 -0.00449389937342 -0.0140447059354 0.0123426698298 -0.0125602621386 -0.00707683702252 0.0098029712407 0.0144885087684 0.00578778434481 -0.0085968032682 -0.0122830646705 0.0153857091135 -0.0135180250245 0.0163582463174 0.00152373499653 -0.00552095442784 -0.0151636719776 0.00495329770098 0.00190366855421 0.000271839798421 -0.014105678825 0.00942992816977 0.00165845862251 -0.00102998269201 0.00811478083361 0.00387137256394 0.0162542296135 0.0158851884164 -0.00933878468002 0.0114994486211 0.0117647080249 0.0157233552833 -0.0074759884112 0.0107682234372 -0.00191697794583 0.00719733476518 -0.00336705736942 0.0110648885385 -0.00748437783651 0.00592802109255 -0.0112526927785 -0.00944334068367 -0.00222524240348 0.012034356739 0.0118735107451 -0.000589578643283 -0.0142074310925 -0.00117358464979 -0.00766376677812 -0.00238324816098 -0.00107172340413 0.014558626198 -0.0078487309354 0.0097365344642 -0.00990561506567 -0.000843056175104 -0.00803070665137 0.0132638825273 0.0121408121723 0.00840253862373 0.00375045385814 0.00940781287544 0.00466691502337 -0.0136170090664 -0.0109794328724 0.00666025131139 0.00152278885456 0.00877032041356 -0.00352595603897 -0.00103382319135 -0.0120877670828 8.06121603395e-05 9.77409145398e-05 0.000398939229191 -0.0118053862881 -0.00764972126995 0.0122195959566 0.00210497435035 0.0152614184329 -0.0107046664605 0.00987840697342 0.00967581948392 0.00936390476217 0.0035361929202 0.00216540431276 -0.00149970498966 0.0163710665266 -0.000848916781905 0.00575768949085 -0.0157304944651 0.00178746623503 0.0109523838096 0.00545991062283 0.0133183806894 0.000375351187055 -0.0169089989406 0.00331526498045 -0.00817255554326 0.00339525572196 -0.00931277158615 0.00609565050606 -0.0127350629881 0.00143409512424 -0.00530444680832 -0.0146287426249 0.0128227949382 -0.015241949713 0.00536521244258 0.0156595529922 -0.00965885187421 -0.00721073831608 -0.00295048871207 -0.00514696173519 -0.0069819863196 0.0100376174795 0.0176714129874 0.00839581281448 0.0130213513881 -0.00764086682781 -0.0093491605989 0.0103095894377 0.00739822996518 0.0138162821064 -0.00777934668312 0.0107466452807 0.000277195127353 0.0194594056695 0.00570675895607 0.0126719939231 -0.00971178438716 0.0154034407605 0.00968584928961 -0.000503577544244 0.00793222439774 0.000613967561903 0.0112918620339 0.00994241489843 0.00357072089899 -0.0181287927556 0.0110602295269 0.00658467477979 0.0118685449806 -0.0137933287316 -0.00976198323826 -0.0133293735319 0.0135405609588 -0.00644100226043 0.0124352923078 0.00553753730903 0.00498439112378 0.00733571057134 -0.00306558482721 0.00859242110314 0.0150374021349 0.0169496689612 -0.0136420052116 0.0113568373533 0.0145380400342 0.0120751721243 0.00307049563415 -0.0164233286212 0.0083873781669 0.0147089219971 0.0039687217506 0.0124719686522 -0.0117851805627 -0.000425761102731 -0.00485803783601 -0.012882795832 0.0139106802048 -0.0122841731137 -0.00743134541227 -0.0117238278568 0.0160138947458 -0.00221562656807 -0.0123564642017 0.0160071727308 -0.00685088948129 -0.0139404088791 -0.00890386004049 0.016326494319 0.0125254219771 0.00519702880761 0.00495787561017 -0.000703378960396 -0.0179654551916 0.00517672097971 -0.00286052235627 0.00845816515571 0.0086811572443 -0.00928772074512 0.00668006901573 0.0122656545029 0.0158479751787 -0.012602573412 -0.0119731202246 0.0066257982815 0.00602967996584 -0.00648111997402 -0.010276630506 -0.00780397288992 0.00942666976758 0.00555809940477 -0.0126987341801 -0.00904483113551 -0.0164954351401 0.00986180546785 0.00894355466761 0.0133127850427 -0.00636898796566 0.00934189924157 0.00999360000573 0.00296402602493 0.00760623379489 -0.0155717287044 -0.00317977749441 0.00127744318336 -0.00663197421534 0.00694909074012 -0.00191626001642 0.00110629845195
on -0.00299955972075 -0.00323084911772 0.00253152320018 0.000651050357352 0.00430646826245 -0.00256396745502 0.00246738581563 -0.000924842013387 -0.000324217188959 0.000978250329233 0.00370567537306 0.00352096868943 0.00398216167567 -0.000701811919369 0.00348146860452 0.00135310023309 0.00230474865496 -0.000438463334614 -0.000684412841266 -0.00238280326349 0.00206528645604 -0.00451808198349 -0.00143383471643 0.00448799131737 0.0030430964947 0.00171370242217 -0.00139816221981 0.000725308486143 -0.00209620239603 -0.000706676307759 0.00159727931423 -0.0018076340214 -0.00281862231465 -0.0033686027312 0.00116497863093 0.00294163084017 0.00301767550757 0.00425244559078 -0.000549727931238 -0.00238627796529 0.00298330515387 -0.000178023403874 0.00395597001576 -0.00173849144977 0.000892628427932 0.00437929846373 -0.00212407759673 0.00242699603446 0.00450772303297 0.00271898362405 0.00151391487593 -0.00177758796111 0.00311712078899 7.07651242659e-05 0.00210400758572 0.00122134431929 0.00128816425252 0.00478984676523 0.00484545256157 0.00184167499935 0.00268212968023 -0.00199991599208 -0.00254172967582 -6.83723481863e-07 0.00190998274673 6.28606019892e-05 -0.00394889724403 -0.00168124174936 0.00321834497141 -0.00143582241083 0.00401924881207 7.91917880141e-05 0.00242989039844 -0.00188221051041 0.00195824741694 -0.00282623695753 -0.004253434713 0.00477580157922 0.00497970192554 -0.00499989290157 0.00253208422753 0.0026727423518 -0.00401433619396 0.0023754777404 0.00260097336631 -0.00144540923605 -0.00350413661886 -0.000522205572622 1.93467801347e-06 0.00185096307941 -0.00346926424607 0.00377985218579 -0.00194821390645 0.000406954373001 0.00231428746403 0.0045336560595 -0.00143702713354 0.000726576943676 2.34546751856e-05 0.0053407242741 -0.000731678879648 0.000594190520656 6.45922523284e-05 -0.00137542191034 -0.0020300713315 -0.00263757724701 -0.00436970106787 0.00163162099654 -0.0032818103339 -0.00364101596943 -0.00381957697071 0.000147013484615 -0.00383461436947 0.00132212326599 -0.000583149904244 -0.000275327379302 -0.00269887852995 0.00320455181298 -0.00259815640409 0.00395260996324 0.00200588347847 -0.000594710601194 -0.00352245821652 -0.00167541852584 -0.000416210264962 0.00473148895956 0.00105894710791 0.00118412216293 0.00014752400393 0.000296432207196 -0.00466003857699 0.000691279812577 -0.00203312930113 0.000449607725348 0.000491974536652 0.00239765733515 -0.00181170946896 -0.00120776964692 -0.00358231026937 -0.000803358988108 -0.00224128291151 0.000614367572459 0.00463089840906 0.00369756477533 -0.000166997157506 0.00148258923291 -0.0023672100105 0.00226512794289 0.00115108266515 0.00160050391624 0.00193874026754 -0.000356704012011 -0.000139176155831 0.00241661363171 0.00185728948971 -0.00296422676111 -0.00198432239657 -0.00244769287843 0.00315656959964 -0.00267701990275 -0.00381194314787 -0.0035094148156 -0.000115632398915 -0.000296740586484 0.000791661767839 -0.00259036673643 -0.000534367021263 -0.00221196680394 0.00429854770245 -0.000871432626575 -0.00226780300743 -0.000612534541739 -0.00442289825447 -0.0013773921937 0.00267745066053 0.000171225523604 0.00165791918694 -0.00201225702553 0.0025770562398 -0.00203786607462 0.00141041323369 -0.00137526010953 0.00117796739406 0.00405697126399 -0.00320638741784 0.00413426821801 -0.000955388405132 -0.00467430045493 0.00045897912128 0.00165340078978 0.00010240584846 0.00100937043889 0.000570631137704 -0.00398729788524 -0.00350697386282 -0.00331380505187 -0.00402211083851 0.00351185103828 0.00218794393809 -0.00197453867795 -0.00166854930299 -0.0041973004219 0.00311860378521 -0.00364974147951 -0.000454181446906 -0.00337357234046 -0.000939485977069 -0.00288671812329 0.0035865988833 -0.00433407561204 -0.00116231603979 0.000655911566404 -0.00282211404619 -0.00185823178224 -0.00356986549753 -0.00115621568944 -0.00160260873235 0.0049067256263 -0.0024298171655 -0.001142196172 -0.00279479348784 0.00363778534533 0.00388741850901 0.00167536247452 -0.00331333213026 0.00234371030653 -0.00392182089959 0.000247997388176 -0.000981320888218 -0.000981866484351 -0.000476151455967 -0.00282194792468 -0.00383623913144 -0.0023423634663 0.00171625585407 -0.0036844827984 -0.00404637739551 -0.00205265549079 -0.00216871631654 0.00215490555718 -0.00259730018565 -0.00324438318417 -0.000862695329627 -0.00395448048515 0.00486443264595 0.00128157584539 0.00181922714941 0.0046332823045 -0.0044422878698 0.00117643151133 0.00292827930479 0.00139586794563 -0.00497033726163 0.00152138416918 0.00396950842575 -0.00406303650065 0.0016715580215 0.00275298962099 0.000850137069654 -0.00429972254602 -0.00182729376351 0.000384990582773 -0.00110439930697 0.000586167091206 0.00474451493493 -0.000750393540317 0.00165283009495 -0.000940295464862 -0.00272352373148 0.0020592785613 -0.00311852227675 -0.00233139354994 -0.00471183821159 0.00198000550675 0.00151870025308 -0.0021830197339 -0.00264290586604 0.000823936258456 0.00189957461376 0.00264429022165 -0.00112549733628 0.000310506028292 0.00216853497911 0.00183009455401 0.00440957683681 -0.00224935319236 -0.00191669789084 -0.00313901946647 0.00121140333417 -0.000999542104252 -0.00387416421454 -0.00220697445548 -0.00168192872818 0.00378230361716 0.000870788866682 0.000787292438025 0.000810010319453 -0.00338542466259 -0.000871086128874 -0.00171969065669
be 0.00293948986555 0.00262473286674 -0.00458199917273 0.000596926671104 -0.00471419237884 0.00134317945436 -0.00150294398905 0.000415729123502 0.000523325241096 -0.000715095392619 -0.00270557197758 -0.00243900452226 -0.00282812161694 0.000393087351996 -0.00546443156372 -0.00142987519727 -0.00287377542777 0.00158296620436 0.00137829014488 0.00156749221627 -0.00282387384655 0.0041499565378 0.00247148909469 -0.00398939846672 -0.000998918638771 -0.00352943936289 0.0046185838418 -0.000544410551356 0.00041035124814 -0.000819149045137 -0.00199919764595 0.000902019171586 0.00154636037582 0.00504441504884 -0.000224889047039 -0.00392667992749 -0.00334804199333 -0.00396385112155 0.000216572373867 0.00164120753975 -0.00497950303603 -0.000796040945643 -0.00265615064493 0.00431924970556 -0.00272239437959 -0.0035441728114 0.00292728058506 -0.00232215571289 -0.00256350542585 -0.00113292281193 3.71760500988e-05 0.00127789167575 -0.00105231437744 -0.0017093657248 -0.00178479359249 0.00156913766436 3.41991646871e-06 -0.00531088654882 -0.00391965516038 -0.00384488168002 -0.00302205625931 0.00271851431916 0.00102244660945 -0.00303005805198 -0.00215733904325 -0.000769238523294 0.00371813930317 0.00210502909934 -0.00277183724741 0.00213412069527 -0.00560867901805 0.00256365166749 -0.00035427865187 0.000858635564704 -0.00349422782155 0.00448828182243 0.00263931923968 -0.00331518114532 -0.00406843135889 0.00268428627345 -0.00294308206177 -0.00421622712147 0.00353355645947 -0.00278953119093 -0.00109526017832 0.00280387616958 0.00301342005163 0.00205890243619 -0.00115657562523 -0.00314874449255 0.00555467249407 -0.0040646491758 0.00366670747047 -0.000422732676726 0.000235625613393 -0.00305958096534 0.00234401825333 -0.000529492212419 0.000821141330106 -0.00406986955037 0.00159235765744 6.56751214713e-05 6.84657188541e-05 0.00323359265252 0.000458462925123 0.00470802441037 0.00289265822285 -0.00151209213424 0.00182178184737 0.0020568467835 0.00507603394318 -0.0035909216741 0.00453911411551 0.000324952084282 0.00347365106738 -0.00217510522961 0.00430957767665 -0.00146865404767 -0.000285041478581 -0.00437157172389 -0.00152020647588 0.000445038408689 0.00246152394126 0.00413914403689 0.00108869194424 -0.00478283132303 -0.00193998734029 -0.00131741714939 -0.00108099429685 -0.000923005824901 0.00287182873256 -0.00204735258327 0.00411401855034 -0.00210804564715 0.000325187807338 -0.00204173532829 0.00459452319096 0.00451604524877 0.001041068452 0.0018445167712 0.00377542682316 0.000826880353528 -0.00437990462923 -0.00388088616312 0.00323844413904 0.00024821723555 0.00325868384464 0.000579466906951 0.000545121848783 -0.00255234681067 0.000138673624016 0.00174519348564 0.0019010759741 -0.00313320032737 -0.00325237020942 0.00165108724969 0.0011126284519 0.00430885210186 -0.00103372117857 0.00291306496045 0.00137497791089 0.00331853243737 -0.000276050438863 -0.0012174244235 0.00139525042867 0.00533708515279 0.0013562796788 0.00134902769288 -0.00565255423424 0.00125973910487 0.0043558487873 0.00064126059024 0.00428876631474 0.000497837820882 -0.00438445964958 0.000965210079692 -0.000542033563146 -0.00129614812404 -0.00101586518539 0.00153941762003 -0.0025662822514 -0.000948167452282 -0.0016828570924 -0.00420896975866 0.00277450858026 -0.0048086882051 0.000735554744802 0.0028848909165 -0.000301879607045 -0.00262836424749 -0.00190239095274 -0.00258022586569 -0.00181039210339 0.0031412152543 0.00322854167836 0.0014387332106 0.00320179877385 -0.00301322131902 -0.00123004157929 0.0011483182873 0.000811414636854 0.00288850749527 -0.0027449565244 0.00413434908358 -0.00114963091641 0.00417400679616 0.000751882841777 0.00497097985901 -0.00330523835223 0.00430180342469 0.00258093892219 -0.00128868769538 0.00205275551674 0.002034882424 0.00278215864284 0.00307821539675 -0.000515068112145 -0.00433522299672 0.00116173896137 0.00191063289451 0.00387670162386 -0.00385316261611 -0.00432480081661 -0.00464040566744 0.00453831616542 -0.00022626885198 0.00503509982002 0.00151099874898 0.00115574118124 0.00215507585822 0.000454358805127 0.00270078973794 0.00429109009252 0.00227289892751 -0.00221413295999 0.00381962556619 0.00482840674392 0.0044469633942 0.00160399243006 -0.005799172172 0.00410813528477 0.00383827304963 -0.000146818450836 0.00389894207575 -0.00454490664892 -0.000892897555771 -0.000464794743082 -0.00339366931339 0.00464272614283 -0.00249471806274 -0.00244137398694 -0.00388541579874 0.00414530619738 -0.00176340403974 -0.00184436931562 0.00253409799602 -0.00340716414255 -0.0043549666479 -0.00316131472851 0.00509430893449 0.0023852347068 0.000917652679669 -0.000317366091756 0.00190454723586 -0.00256362879951 0.00169590661623 -0.0011578185536 0.00137265124597 0.00242868020315 -0.00228635185517 0.00210614173368 0.00382550996979 0.00486790114965 -0.00284315012176 -0.00283776315034 0.000329587864429 0.00126970696068 -0.000501902939938 -0.00263721626949 -0.00306534021379 0.00267224820218 -0.000798626910318 -0.00376036151039 -0.00183647593478 -0.00487773587461 0.00173847896887 0.000749395586668 0.0031080056737 -0.00323845351291 0.00266339787332 0.00164044614669 0.000422992653511 0.00189290207758 -0.0046056800966 -0.00140567788339 -0.000134842933572 -0.000545577269011 0.00195383716742 -0.00023750638774 -0.000220056770808
has 0.0132072769868 0.0129336562027 -0.0169395034467 0.00189246800261 -0.0152547376295 0.0112546021884 -0.00778456604976 -0.00436907005361 -0.00273756602998 -0.00196694938432 -0.0155379271703 -0.0137410015788 -0.0149432188735 -0.00198477737664 -0.0185941153372 -0.00447624274863 -0.00905977994147 0.000520810227676 0.00283237322457 0.0114218075031 -0.00716942624738 0.0149118097284 0.00633863550803 -0.0179543199895 -0.0102223043366 -0.0127518808606 0.0146954447915 -0.0042843149362 0.0034530121381 0.000282999740787 -0.0059362524653 0.0105927793649 0.0128868845405 0.0145293994698 -0.00491914913795 -0.0189160577612 -0.0144872560521 -0.0144575086833 0.0104087678005 0.00358107680662 -0.0186287070071 -0.00482590376205 -0.0178808561851 0.013459653651 -0.0106356643142 -0.0193709404573 0.0187904865457 -0.0035557481956 -0.0168718243753 -0.00806063819508 -0.00376649893657 0.00845171444317 -0.0101777065051 -0.0032660107956 -0.0133580861143 0.00203344306787 -0.00232134040107 -0.0203724453579 -0.0202436227942 -0.0173163698117 -0.0109800550079 0.0141070485815 0.00414305105473 -0.00639694058983 -0.0119375939625 -0.000743049323196 0.0122984122955 0.00168233918607 -0.012833527478 0.00783961585179 -0.0219933452653 0.00559596205334 -0.00450045854152 0.00415558523877 -0.0119429406681 0.0156033501391 0.0179597161495 -0.0201342222085 -0.0189210523944 0.0193725031973 -0.00439985153371 -0.0189780953758 0.0144791742433 -0.013777508399 -0.0072687588082 0.0115181347821 0.0172229913178 0.00645288200925 -0.00792181273268 -0.01387101763 0.0197709503213 -0.0152518077996 0.0189218977097 0.00358608932377 -0.00770577939524 -0.0154903720386 0.0074885690403 0.00424772006034 -0.0021598853595 -0.0189634080106 0.00942428473137 0.00271149201849 -0.00163005978499 0.00840649983566 0.00372654032517 0.0170753597219 0.0180176471621 -0.0106207697887 0.0122178015004 0.0136586637103 0.018864253804 -0.00914255488703 0.011239704535 -0.00160258189618 0.00916277618636 -0.00617926905272 0.0113450597789 -0.00807881606829 0.00700409634809 -0.0110863984514 -0.0136787546341 -0.0041761299282 0.010265198634 0.0136487233532 -0.00207277742899 -0.0149002518777 0.000218385441942 -0.00907363978063 -0.00222523996932 -0.000894531444444 0.0177160313102 -0.0062512899528 0.0119460543199 -0.00837774430906 -0.000667738594008 -0.0093022013772 0.0132613840247 0.0154918138213 0.00999613344028 0.00470223213424 0.0100394368154 0.00581118454798 -0.0143796690428 -0.012624531408 0.00586304240018 0.000269290613362 0.0087079265001 -0.00452404439455 -0.000801015776061 -0.0141983268786 -0.00220042209893 0.00165499841399 0.000681361122036 -0.010665356942 -0.0096496623646 0.0107067958056 0.00227521690917 0.0178550371446 -0.00934301141555 0.0142862168857 0.0116237947042 0.0095320501861 0.00398399105487 0.00429582716755 -0.00092720104635 0.0203083559335 0.000762558040147 0.00436148945985 -0.0159571936271 0.00513170686421 0.0100690932913 0.00667162869229 0.0174307454198 0.000953615770786 -0.0184068141812 0.00534962789481 -0.00920486728094 0.00363939290586 -0.0119607862293 0.00855326840552 -0.0149007954126 0.00101678211863 -0.00230970542293 -0.0157325615754 0.0140578461349 -0.017901264527 0.00387381193264 0.0166700652434 -0.0105128054359 -0.00670188586338 -0.00193697010492 -0.00770713600074 -0.00754439363626 0.0129225583758 0.0188911145369 0.00995295753842 0.0139139983491 -0.00741786912676 -0.00827749306772 0.0102947153215 0.00921868135447 0.0164739423271 -0.00749027220584 0.0126163999695 0.00333661066555 0.0201887907381 0.00752823481308 0.0155016196607 -0.0098501071948 0.0154640953919 0.00951916231344 0.000263766273976 0.00840499973574 0.00291336545539 0.0112314823103 0.00916884170852 0.00570108107179 -0.0192964000671 0.0128238195713 0.00738340942286 0.0155059049683 -0.014036985211 -0.0137558544493 -0.0157053781822 0.0156479009532 -0.00684818728348 0.0144557442894 0.00680785498916 0.00584267854925 0.00713379055958 -0.00497946931296 0.0110334064139 0.0190234425974 0.0175208212832 -0.014451744192 0.0132731487795 0.0182431962602 0.011945415848 0.00515971605598 -0.0191904292407 0.011484383952 0.0177598531643 0.005662671779 0.0152943262605 -0.0165915166473 0.00142508714972 -0.00709937399152 -0.0162072233095 0.016857941092 -0.0110956572886 -0.00936868170433 -0.0123914075192 0.0185407071141 -0.00193145365971 -0.0152256471675 0.0163667821473 -0.00980689034096 -0.0191978095574 -0.0116476329385 0.0169430139712 0.0155991289479 0.00560364836891 0.0047449148442 -0.00137622452072 -0.0177715400216 0.00490177116167 -0.00408898639825 0.00873314232423 0.0103313397154 -0.0105916003366 0.00695957883659 0.0163475095404 0.0180083729497 -0.0137896412909 -0.012901512651 0.00619060155253 0.00995939008196 -0.00615417395804 -0.0117252175661 -0.0102564059005 0.0107057735411 0.00424912400444 -0.0134933376258 -0.0111712791101 -0.016386664583 0.00992075739072 0.0113704849437 0.0146967009395 -0.0105104252984 0.0115785811481 0.0118612251916 0.00259784847505 0.00955250546304 -0.0174492629961 -0.00487763382097 -0.000361775299995 -0.0050626829618 0.00968398859249 -0.00288398854261 0.00326769457602
it 0.00849509167083 0.00765601391006 -0.00936028120026 0.000818840636875 -0.00894581184889 0.00722082789278 -0.00481067881191 -0.000794917604145 -0.00212977394155 0.000128883087037 -0.0116981010142 -0.00805015857399 -0.00955589255735 -0.000868360666475 -0.012821025877 -0.00446444780962 -0.00547806717978 -0.00104973388104 0.00290849056921 0.00913265838188 -0.00546468603373 0.00992129173645 0.00583112638865 -0.0113906705347 -0.00579300454899 -0.00985258962285 0.00754772959133 -0.00431056287286 0.00253522796627 -0.000334081771558 -0.0029977680193 0.00634289208091 0.00897194655889 0.0105221419666 -0.00427191506415 -0.013045646481 -0.00866148437526 -0.00828858311746 0.00579761480234 0.00138282261272 -0.0131315090682 -0.00311660664124 -0.0097906615421 0.0112353055843 -0.00652899019254 -0.01143088452 0.0134224651886 -0.00393206229885 -0.00980389045129 -0.00414442283809 -0.00271823532733 0.00461721442274 -0.00786120350768 -0.000490471244738 -0.00765586301295 0.00135650719923 -0.00163938936652 -0.0108877444972 -0.0123410973978 -0.0121502859139 -0.00930603966604 0.00936481403861 0.00326642163782 -0.00568510210296 -0.00666563557902 0.000942166609532 0.00982011006773 0.00124417140378 -0.00650907795593 0.00489349940959 -0.0141880125193 0.00506045587595 -0.00550717931259 0.00238318503847 -0.00922177137958 0.0100970075538 0.0114925008865 -0.0130491976264 -0.0144624784714 0.0106201670749 -0.00442670754266 -0.011586285263 0.00830487676616 -0.00980148152483 -0.00358079446329 0.00585506030352 0.00994267972131 0.00407962362873 -0.00393220773906 -0.00939263771885 0.0128957709582 -0.0095720378561 0.0116198794675 0.00180845464316 -0.00469631227583 -0.0104422635996 0.00380005454934 0.00254874286433 -0.00194207499701 -0.0121935453807 0.00551940903544 -0.000193566142134 -0.00273969032015 0.00555727761721 0.0036678412403 0.011075831611 0.0112834027303 -0.00720820771932 0.00970815423161 0.010167335188 0.0127755978756 -0.00735535755836 0.00901576422791 -0.00106054865302 0.00505547417314 -0.00453103228649 0.00772357541103 -0.00748232829265 0.00386628280802 -0.00791684804069 -0.00663477386072 -0.00399851250622 0.00926762753035 0.0100227357166 0.00119244835305 -0.0113330787455 4.19248496622e-05 -0.00584662625422 -0.00258831598648 0.000636261508268 0.0124422367308 -0.00569939939118 0.00734570749276 -0.00732983286955 -0.000363364385204 -0.00442338715677 0.00820593416838 0.00796099450183 0.005652325062 0.00445165624451 0.00839262448178 0.00206194821228 -0.0104453656071 -0.00763701023931 0.00526152532517 0.00158417165304 0.00713651409617 -0.0025499033579 -0.00224272692931 -0.00761593099612 -0.000455401735219 -0.000435534851772 0.000527749903013 -0.00743590684485 -0.00719984576963 0.00819567468256 0.00317082267241 0.0116878787354 -0.00572245776665 0.00750394958271 0.00788861584554 0.00570102316546 0.00309300375346 0.00281475100521 -0.00102507830901 0.011999133963 0.00155155969147 0.00321977413202 -0.00991610132888 0.00271640585587 0.00871711167347 0.003731333251 0.0112869323438 0.00127181897432 -0.0124988948625 0.00106819774823 -0.00447957144209 0.0011403553804 -0.00857442039332 0.0054071106735 -0.00769473471911 0.000172400546454 -0.00405384137632 -0.0107244397755 0.00873978457947 -0.011115290996 0.00339617909051 0.0120890484939 -0.00472865702044 -0.00446411345974 -0.000840378903129 -0.00418013369719 -0.00639550198847 0.00870631542572 0.0113540846985 0.0080085478852 0.0101012676928 -0.00633576375233 -0.00757916039119 0.00836559111087 0.00463476432617 0.0123170760528 -0.00659473948668 0.0102454184405 0.00275261599116 0.0124614209733 0.00225342071332 0.00940212597963 -0.00871890077508 0.0102205391755 0.00637373947654 -0.000657303716534 0.00690121502221 0.00250538779258 0.00837693702927 0.0055336764727 0.0022990341384 -0.011803035328 0.00671550059083 0.00293805794532 0.00951990272237 -0.0114747966108 -0.00766541396108 -0.00943811646525 0.0113549528891 -0.00703068406659 0.0102209818661 0.0028366178087 0.00359076952259 0.00438016423685 -0.00318736325058 0.00716380454254 0.0108248045435 0.0135925166049 -0.0108687020622 0.0102914506135 0.0126743361581 0.00890328987324 0.003408454071 -0.0135386034518 0.00740036400617 0.0109174848173 0.00337061419636 0.0101688182986 -0.00813901932348 -0.000446622974964 -0.00459015603102 -0.0113948088876 0.0106150976927 -0.00726197412705 -0.00734644614176 -0.00884932372631 0.0103512471716 -0.0019770572996 -0.0112787763519 0.0105400315408 -0.00495614351451 -0.0108245700944 -0.00798761328271 0.0115734723831 0.00871626338611 0.00505161924384 0.00402782364041 0.00115137758601 -0.012235844889 0.00322403153408 -0.00376882827675 0.00444992031969 0.00772393431102 -0.00585974377794 0.0059029743741 0.0117405822612 0.0124854114299 -0.00867037637889 -0.00829410655868 0.00495228225679 0.00564227698057 -0.00255684594881 -0.0069617930683 -0.004509210181 0.00486382126759 0.00242487000139 -0.0097237041248 -0.0059349123934 -0.0104056779088 0.0068427335986 0.00670121010144 0.00968499672347 -0.00530335582353 0.00533531340267 0.00895177069265 0.00134445928806 0.00618945741062 -0.011355856231 -0.00290303098359 0.000811295644354 -0.00363491982719 0.00590262397972 -0.00118695554241 0.00188525320311
The -0.000590553117286 0.000595883606505 0.00137450182815 0.0012162663561 -0.000837333616391 -0.00103798996175 0.00122141636716 0.000288157555414 0.00126861133097 0.000720427412146 0.000150394964045 0.00133840581497 0.00115658594915 0.00164541904263 0.000315035411705 0.000462287304039 -0.000965899248709 -0.00081218824951 -0.000318826518322 0.000856083092583 -0.000279937698499 6.4736639722e-05 -0.000207009648507 -0.000261308106938 -5.80066234658e-05 -0.000168041661118 -0.00244215910325 -0.00073358677768 0.000140245708415 3.21276779399e-05 -0.000320483811642 -0.00218484379956 0.00124729398085 -0.0014813703303 -0.00101355974521 0.000772970691942 0.000767763658307 0.00100666375417 -0.000374015210829 -0.0020774291386 0.00175087765599 3.30699343668e-05 0.000799955726386 0.000857040600742 -0.000305410116186 0.00141327423354 -0.00274276178984 -0.00142496057857 -0.000299763505042 -0.000538541237304 -0.000302739670138 0.000266361922265 0.00215210306045 0.0015024281668 0.000932176096051 -0.000941138894273 0.00124033911788 0.000893341036772 0.000739717294702 0.00242355931485 -3.86754353428e-05 -0.00116893125253 -0.00153958745225 0.00158005905206 0.00193111660944 -0.00033606134718 -0.000684175767541 0.00132533815324 0.00214136518004 -0.00140036217534 0.00251430508433 -0.000610702191477 -0.000101532151231 0.00111554785178 0.000609543150497 -0.000149109199264 -0.00219933452543 0.00160093269008 0.00198371817077 -0.00135620835354 -0.00022221916373 0.00197466416932 0.000794919033866 0.00159365933413 0.00210038303162 -0.000556760063064 -0.000620466174871 -0.00145529360768 0.000344311102951 0.00232773132728 -0.00222547023553 0.00208540322055 -0.000208665141082 0.000944929466231 0.000922907632401 0.000341106600451 -0.00112398008414 -0.000623560207635 0.000474396086383 -0.000687488346846 -0.000228929110751 0.000335206513557 0.000833531744067 -0.000252902428355 0.000853004979244 -0.000473088491811 -0.000321639175744 -9.82853999951e-05 -0.0012025521191 -0.00101687022737 -0.00267620128552 -0.000254547973897 -0.00217225452476 0.000296538654502 -1.04572965052e-05 0.000652181763037 -0.00235350551459 0.00135489223104 -0.000436458862777 0.00154272305362 0.00161311006641 0.000200573548171 0.000640077039397 8.57751104181e-05 0.00144372079621 -0.000531381312488 0.000743593742377 0.00179969881674 2.85161880685e-07 9.61002447383e-05 -0.00259914345135 0.00177411444926 -0.00139093648753 -0.000951405394174 0.00178109425355 -0.00109399787781 0.000139588807669 -0.00240657483106 -0.00207173167928 -0.000734162691124 0.000415352257927 -0.00146335552989 0.00208516625341 0.00020051246971 -0.000676215047765 0.000704786223285 -0.00108379362694 -0.000309669053255 0.00206695833768 0.00117847584005 0.000600805805868 -0.00108719819892 -0.00158234361072 0.00165354472421 -0.00150080390622 0.00126210081631 0.000541026019799 -0.00218052341054 0.000823327878884 -0.000969862312905 -0.00170299026594 -0.00228085118475 0.00179709457552 -0.0016686237718 0.00119935297891 0.00110536633919 3.97686134595e-05 -0.000574600146218 0.0032996202183 0.000253815198499 -0.0023595073384 0.00135148654834 -0.000391598243428 0.000218187165538 -0.000154863151704 -8.84824452675e-05 0.000961340504112 1.87791087366e-05 -0.000255276403171 0.000117339639834 0.00119456366682 0.000199017353147 0.00188587550599 0.00260040405603 -0.00240133973452 0.00235752528965 -0.00233578974136 -0.00135659742358 -0.00119626317351 0.00117590692961 -0.00146195984964 -0.000708580845643 0.00189464126926 -0.00155169624743 -0.00222298046216 -0.000824720543562 6.57516951668e-05 -0.000395503191629 0.00122363381151 -0.00166627991646 -0.000774426519256 -0.00175220115778 0.000827005211767 -0.00252983600438 0.0014926325698 -0.00216328315688 -0.000359802295949 -0.0014026178562 0.00225970073308 -0.00162444059002 -0.000811805482027 0.000111319800707 0.0012428238259 0.00142589933075 -0.000595280747668 0.000484176977921 0.00113881312215 0.00284003617268 -0.00191855872908 -0.000314864699127 6.91040838255e-05 0.00200482050042 0.000143161560464 -0.000349211786729 0.000600465244233 0.000399072217205 -0.000253077961583 0.00175430517487 0.000750746328984 -0.00144606843512 0.00146960993828 -0.0010810840076 -0.00188062658586 -0.00131066747538 0.000523002932521 -0.00253576765488 0.000367817936258 0.00051608478106 0.00109469248725 0.00128121750055 -7.30147927686e-05 -0.0004515485116 -0.000596334724698 0.000295253913481 1.05400996073e-05 -5.4306961982e-06 -0.000645248682817 0.00194644539124 0.000889767406604 0.000558858954892 0.000848400208558 0.00211133145781 -0.000907948474195 0.00154226886772 0.00205472122152 -0.000611834825854 0.00107410150467 0.00233668190915 0.000236942219268 -0.000788273433873 -0.000333195175372 0.000980425020685 -0.000684847646251 -0.00142577430726 0.000573204189624 -0.0013023244137 -0.00148112296215 5.79466289199e-05 -0.00163081654552 0.00211420105675 0.00129220830321 -0.00162764749251 -0.000186075515398 0.0023852713644 -0.000943071362565 0.00073704030821 0.00105408727375 -0.000875765782278 -0.00142850766877 0.00226756368268 0.000223916816994 0.0018220519002 0.00187957567847 8.95497989589e-05 -5.60442002922e-05 -0.00190724478048 -0.000483513930364 -0.00239992214788 1.01105013995e-05 9.60059946249e-05 0.000208078843736 0.000668171226422 0.000531723605686 0.000328769664498 -0.00105761276477 0.000655960920821 -0.000953820535556 0.000119339771159 -4.44478555815e-06 0.00119444606272
for 7.05574881245e-05 0.00234364334338 -0.0020258166328 -0.00106690548094 -0.00220599352167 0.00105153749945 -0.00214294710036 -0.00089382140265 0.000602245209933 -0.0017024772564 -0.000159734074036 -7.2420374655e-05 -0.00134505780862 -0.000527161179551 -0.000428744361255 -0.000792055276348 -0.000249150216728 0.000646557510584 0.000706810185458 0.00199877345831 -0.00111834285375 0.000611798487296 0.00151449425831 -0.000367403037817 -0.00196943048783 -0.000516799120232 -0.000326220084817 0.000525138169894 0.00120930181494 0.00133249910221 0.000795346565037 0.00201622944627 0.00245838410411 0.0016303968059 -0.00117705734119 -0.000120462911249 -0.00065472711383 0.000179973820165 0.00210970872342 -0.000873777706658 -0.00176584051079 -0.000853559748733 -0.00184740363732 2.00718150174e-05 -0.00248700438376 -0.000637053701371 0.0030650501826 -0.000386902394394 -0.00295758790472 0.000910632292097 0.000826772325748 -0.000271184623959 0.000367596467742 -0.000473467380493 -0.00289523334018 0.000114751057979 0.000297449038388 -0.00264480338551 -0.000917858394854 -0.00194176769074 -0.0025149747547 0.00105613278336 -0.000959868746966 -0.00151430405203 -0.00269328851235 0.00151530232291 0.00209624134222 -0.00189275830437 -0.000180571886199 0.00124111594608 -0.00208327102589 0.000624523737468 0.000428678831176 0.00134037505794 -0.00131728893391 0.000778362689593 0.00233525099266 -0.00019054800193 -0.0028565507813 0.00109671517411 0.000737824674397 -0.00155669375288 -7.18407149478e-06 -6.6894497589e-07 -0.000131060721057 0.00162996797504 0.000380358347629 0.000799769482537 0.000290921639384 -0.00130820149567 0.00117594931505 -0.000647843238617 0.00193388886839 -0.00163819959095 0.000933947950697 0.000501827579641 0.00168492821452 0.00113882163798 0.00029567995239 -0.000342041290569 0.00140245841529 -0.000485902121284 0.000899263593658 -0.000151796364285 -0.000556751116111 0.0023514014566 0.000258803595841 -0.00237357577562 0.00122772565103 0.000874125060002 0.000138433255796 -0.000617604782434 0.000429515865772 0.000838219241512 -0.0003561812775 -0.000577267659484 -3.54495112457e-05 -0.000101924291445 0.000538646278725 -0.000636437696554 -0.00159854081597 0.000883943418411 0.00206355717069 0.000144783536931 0.00101376238065 -0.000206951160768 -1.10445210507e-05 0.00013797810053 -0.00198686637794 -0.00133310886617 2.69778850825e-05 -0.00172853041012 0.00250981649396 8.83856887533e-05 -0.00197473739687 -0.000691595328406 0.00225969435109 0.000867962318737 0.00209281138344 0.00171858991926 4.71155558203e-05 -0.000770990967567 -0.00157490857115 -0.00173707758617 -0.000608180065709 -0.000246549838435 0.000670585774786 -0.000374804906114 0.00147875233747 -0.000135258506459 0.00055680694296 0.00117188315594 0.00165053197315 -0.00196721636497 9.10970690124e-05 0.00254452203015 0.000952881114372 0.0006313443099 -3.67043774335e-05 0.00204537983526 2.0375820827e-05 0.00197822117044 0.00191877850195 0.00193574234267 -0.000964857794151 0.00250719605089 -0.00179088304291 0.000396734323732 -0.000297151574901 0.00168711748176 0.00158474882672 0.00136467691125 0.00218960921895 -0.000681444086333 -0.00025443112245 -0.000921061311514 -0.00254799913456 -0.000753099452507 -0.00136817234097 2.88742578618e-05 0.0001135470927 -0.000463581271062 0.000121830447462 -0.00254919663622 0.0027000348804 -0.00193399891029 0.00146067408669 0.00167876056426 -0.000204221059698 0.00130018819058 -0.00106079868046 -4.29538147608e-05 -0.000570113170062 -0.000400710834725 0.00167218559567 0.000830223775743 0.000506007745704 -0.000229174032276 0.000437170385293 0.00222919595946 -0.00100419885654 6.46330586114e-05 0.00114326613777 0.000474019866386 -0.000782028855116 0.00263325719686 2.81952207686e-05 0.00191016612978 -0.00237506418697 0.000867546980411 0.00118010039156 0.00140819920859 0.00213628045991 0.000829728067128 0.000995817168284 0.00243213642238 0.000176177143568 -0.00153776272545 0.00140446333705 -0.00110367203198 0.00244937270207 -0.00168671927909 -0.000952693946119 -0.00226828382244 0.00118147678067 -0.00225680366327 0.00072354806384 0.00240320671461 0.000680359220441 0.00165944349733 -0.00153755880523 0.00135017318301 0.000981116170836 0.00125889240725 -0.00173172768262 0.00151015861695 0.000996634422194 0.0014171743288 0.00111227422917 -0.00166065534409 0.000910005221439 0.00189288543756 0.000532847393244 0.000407331603777 -0.00149429133984 -0.000424550169038 0.000259132599412 -0.00140327245803 0.00040026509536 -0.000175707413075 0.00101691849263 -0.00110532325189 0.000494773947569 0.00131707386952 -0.000659468129556 0.000560978935771 -0.00225370786636 -0.00154656682997 -0.00248986063136 -0.000100367208797 0.00203317029811 0.000192476893374 0.00122275131282 -0.000896735086387 -0.000675802966769 0.00216468096741 0.000773138886621 0.00163084179106 6.80622011975e-05 -0.0014620273831 0.00204425335326 0.000705800651038 0.00225942418336 -0.000215667505715 -0.00249593210319 0.000691445390328 0.000434024038483 -0.000482902227928 0.00077348767986 -0.000298149743544 0.0010728432274 -6.33854964909e-05 2.93501812198e-05 -0.00275038329443 -0.00235242614281 0.00235176226822 0.00234693600758 0.000501762003586 -0.00204968090056 0.00109476159515 0.00146734120356 -0.00160864407167 0.00145662923356 -0.000119352506095 0.00109897686229 4.3287088817e-05 0.000680348517316 -0.00072099418583 -0.00149173574542 0.00052554090712
are 0.0100764087465 0.00921182879158 -0.00931770423591 0.00131984762338 -0.0106407419553 0.00750527324285 -0.00686966194028 -0.000253064689151 -0.00126094194174 -0.000704069889759 -0.00979093883301 -0.00856149557455 -0.0112012473844 -0.000526309240613 -0.0121735226126 -0.0034856698485 -0.00670791040655 0.000518723969299 0.0016730443329 0.00719458633703 -0.00259322669229 0.0116367192711 0.00451841849201 -0.0136037941984 -0.00526843929991 -0.00900546783699 0.00724103419623 -0.00320296060841 0.00387359531655 0.000393418951722 -0.00466993120103 0.00664701110167 0.0102269125608 0.0112429474014 -0.00421720113682 -0.0144758093201 -0.00812697829326 -0.00843762513454 0.0072361136645 0.00359292401776 -0.00973394443698 -0.00181311755182 -0.0120246084902 0.0102508487804 -0.00608959178674 -0.0111996475529 0.0136025705773 -0.0044613956994 -0.0100829392966 -0.00426905344916 -0.00111259865614 0.00553036601827 -0.00547052881717 1.54643214888e-05 -0.00930775843694 -0.000147398844226 -0.0016494470394 -0.0130835063814 -0.0113939665635 -0.0102536672218 -0.00716420381233 0.00871600332619 0.00415759312318 -0.00313507512645 -0.00808464455705 -0.000501197174578 0.00703916470623 0.000600076635366 -0.00881664542765 0.00547928728885 -0.0153754901305 0.00620396022697 -0.0046516520911 0.00204293754146 -0.00787418666852 0.0100371719235 0.0118982834193 -0.0138863177127 -0.0149249361191 0.0118886434217 -0.00538462905649 -0.0118480873748 0.00873651538941 -0.00888632143592 -0.00335648474944 0.00763838522213 0.0107044499524 0.00565224115916 -0.00549524373507 -0.00810113921769 0.0124598253049 -0.0106859157948 0.0104170993343 0.00149401923135 -0.00223383598938 -0.0106704809202 0.00369311918496 0.00222078288204 0.000518746325356 -0.0102951162342 0.00785069177598 0.000171330492571 -0.0024065265794 0.0064462156397 0.00217707899382 0.0120001289509 0.0109611078943 -0.00717648056197 0.00908817328511 0.00803781251421 0.0113734456967 -0.00646774943736 0.00597608639798 0.000712967606716 0.0043327826244 -0.00187552274434 0.00900160498136 -0.00469661100197 0.00563480272078 -0.00833103528879 -0.00757061021574 -0.0017717492871 0.00734432074465 0.00886908548843 1.45528160741e-05 -0.011062353543 -0.000522405019931 -0.00677422097051 -0.0017762819484 -0.000983992277712 0.0118600225313 -0.00389721454006 0.00805839075429 -0.0059801262519 0.000428829166561 -0.00564798201899 0.0106196162567 0.00878698419207 0.00836757321798 0.00226459433683 0.00646466037412 0.0015260530109 -0.0108361936637 -0.00668330073905 0.00575473088226 0.000582777046809 0.00476749705232 -0.00278362782378 -2.46800171215e-05 -0.0081908270724 -7.68055602662e-05 0.00259036753829 0.00087568455233 -0.00727660623773 -0.00586790671845 0.00812243135936 0.0021579721297 0.0130882824363 -0.00755401898578 0.0083960815603 0.00961444782627 0.00724438638799 0.00281552938092 0.00232369728747 -0.00042676630389 0.0111694699029 0.00166969925932 0.00287216896328 -0.0124094875423 0.00304834404437 0.00813137709869 0.00505909006275 0.0107029376985 0.0018817215365 -0.0121642535192 0.00270488811534 -0.00403768469061 0.00294534375278 -0.00650663193681 0.00565689032162 -0.00988925229744 0.000107408723127 -0.00271908292086 -0.0100531679338 0.00791589163721 -0.0102959912107 0.001827515038 0.0117277280284 -0.00715571158264 -0.00422255601414 -0.00112222058338 -0.00265249552195 -0.00637785799302 0.0071815502922 0.0128773577211 0.00532386440437 0.00917769567469 -0.00694639375428 -0.00576765377805 0.00764315505369 0.00682164194747 0.012629335179 -0.00493006603634 0.00892712088288 0.000652684256445 0.0133054119247 0.00397583682717 0.0121416184784 -0.00756705048538 0.00901719596298 0.00449612114996 0.00109780329129 0.0054662337593 0.00170033887702 0.00959390102304 0.00536696444504 0.00333025012915 -0.011905732993 0.00693914089436 0.00452733356471 0.00993080358557 -0.0110178017937 -0.00757857281486 -0.0109085017169 0.00958982443821 -0.00375801030361 0.00753957741752 0.00345915736353 0.00304222132977 0.00351469731321 -0.00262939559894 0.00800632118088 0.0121428493316 0.0130424081686 -0.0105023107017 0.00971837690096 0.0114453867434 0.0079796398363 0.00194824421301 -0.0125338265484 0.00799491985845 0.0119367515752 0.0033753855023 0.00801527805644 -0.00944302084499 0.000166134435559 -0.0035568076231 -0.0111654102072 0.00932844747497 -0.00790730901029 -0.00699246787909 -0.00856100712437 0.0112219665916 -0.00319210628358 -0.0110002672513 0.0117832022353 -0.0039869943817 -0.0104913226182 -0.00536905407569 0.0108728893628 0.00913959503397 0.00368669292563 0.00282352060584 0.00139281883437 -0.0116762555553 0.00262483618684 -0.00110788993368 0.00666139258342 0.00660136650735 -0.00583809452299 0.0054550319973 0.0101658195399 0.0126132297998 -0.00854132230657 -0.00722800972557 0.00419525249346 0.00424680222287 -0.00431134784997 -0.00548360901901 -0.00624345791155 0.00617348093358 0.00167391800316 -0.00881286291765 -0.00672848376741 -0.0104412488152 0.00777697713301 0.00643205068267 0.00888543089685 -0.00698174122687 0.00795008908967 0.0068698539715 0.000755208535496 0.00670993421729 -0.0130426567583 -0.00307096524906 0.0011408005845 -0.00234715512779 0.00761290257577 -0.00249153570266 0.00199354420627
have 0.00335415830877 0.00479566528578 -0.00472353443726 0.00162263029183 -0.00549564885712 0.00359222022476 -0.002962757764 0.000711039742765 -0.00196605240665 -0.00168148713819 -0.00429617628829 -0.00497584900318 -0.00544289819238 -0.000517750641209 -0.00586405230338 -0.00214304800141 -0.00379947610329 0.00173881966536 0.00157104980149 0.00323729330427 -0.00258303957216 0.00634392388829 0.00223744349069 -0.00643940563948 -0.00291098674295 -0.00511473811769 0.00592413222318 -0.000421171446318 -0.000198397289435 -0.000361439649705 -0.00312078243147 0.00240371278051 0.0046069917027 0.00582751697122 -0.00293837853231 -0.00694598170752 -0.00568439404375 -0.00454427509636 0.00364314802687 0.000110287443953 -0.00611647174484 -6.73661746896e-06 -0.00446332836182 0.00619052194304 -0.00235505710874 -0.0054570178447 0.00660400385976 -0.00112859973187 -0.00511254310282 -0.00182808159762 -0.00133449214541 0.00418371706466 -0.00310811391491 -7.51172466095e-05 -0.0038512386675 0.000679026333279 -0.00103132154311 -0.00688697763512 -0.00566054548228 -0.00378789542081 -0.0047395887879 0.00309236561835 0.000244502618346 -0.000685511508862 -0.00224683870843 -0.0016157884603 0.00361217331497 0.00187291916324 -0.00508517419281 0.0022529928169 -0.00796350236082 0.00392545352457 -0.0015951779633 0.000176493118682 -0.00402391353368 0.00371162791857 0.00477476251541 -0.00509258867497 -0.00705203450965 0.00620096726992 -0.00109811799198 -0.00539318251349 0.00368853158526 -0.00300634775805 -0.00120696760755 0.00375322297939 0.00673096348791 0.0017380341059 -0.00358136556303 -0.00557393709167 0.00687216174519 -0.0044660490689 0.00577879851839 0.00117654076341 -0.00123344535002 -0.00572915783309 0.00327971827918 0.00185207379275 -0.00107075742191 -0.00635815455941 0.00458167952025 0.0014450699689 -0.000796537539112 0.00182928658392 0.000124216833428 0.00683537770715 0.00744034184652 -0.00160129356298 0.0053258576466 0.00301457612143 0.00572362587466 -0.00443849750954 0.00442724353207 0.000540555028712 0.00108594474595 -0.00151125619063 0.00373507471597 -0.00114516691681 0.00375632573832 -0.00312983299479 -0.00543004422659 -0.002322066057 0.0039872300728 0.00566028350402 -3.61466230691e-05 -0.00407441689025 0.000957439892315 -0.00287957731469 -1.28267956011e-05 -0.00017523054196 0.00496570485006 -0.00125210701857 0.0045617737693 -0.00196141931896 -0.000988150703963 -0.00391483956789 0.00570884366469 0.00315439097453 0.00240979666764 -1.35925723985e-05 0.00335467966809 0.000693564197372 -0.00581816850856 -0.00525247736968 0.0007455347982 0.00149959712567 0.00177450981446 -0.00080298927086 -0.00156958887188 -0.00290256658457 0.000693706290314 -0.000776905280389 -0.000452048916327 -0.00329747067114 -0.00317805044881 0.0050656111555 0.00192930403654 0.006560612239 -0.0038669854875 0.00370680920304 0.00533270215195 0.00283361660688 0.00201602149867 0.00264760668178 -0.000614016166243 0.00646313844952 0.000829263455304 0.000689349829127 -0.00642345338709 -0.000116423037626 0.00328014277915 0.00279675066017 0.00554965651406 0.00133010289179 -0.00693626359193 4.70660521843e-05 -0.00314589534435 0.00110902272356 -0.0016895678581 0.00183145322094 -0.00308134044215 -0.00053085492995 -0.00269897139915 -0.00453842589975 0.00489602955887 -0.00574734928171 0.00218234810674 0.00510509819807 -0.00195939158182 -0.000867303248772 8.83265418723e-05 -0.00203133922839 -0.00271969619584 0.00519098661821 0.00592532017308 0.00387340587734 0.00302955117099 -0.00349669391741 -0.0037896488584 0.00409953216047 0.00407001733133 0.00503314509344 -0.00162400185996 0.00340294659922 0.000927270526555 0.00699016966548 0.000747954711427 0.00405322354412 -0.00308324606834 0.00611742984412 0.00447248537352 -0.000773487888019 0.00342134539847 2.43525888944e-06 0.00448858591284 0.00399161102374 0.0033027055832 -0.00724775986825 0.00325050490399 0.00129373134525 0.00365875600765 -0.00323451856562 -0.00212543618209 -0.0047188639354 0.00408681450594 -0.00257322516011 0.00487677725519 0.0025162874703 0.00055661951538 0.00316220898678 -0.0026867318435 0.00397983529424 0.00719491129485 0.0044270806199 -0.00624857386875 0.00393843737661 0.00552778929924 0.00302156759117 0.00298086763765 -0.00475873968897 0.00395223140279 0.00414021169384 0.00161505052467 0.00447936280128 -0.00396787379534 0.000457707699052 -0.000851086130641 -0.00605300078677 0.00463457972371 -0.00244964706361 -0.00186804632488 -0.00494921748767 0.00645992808368 -7.71851780718e-05 -0.00368949184327 0.00570850425768 -0.00137690232461 -0.00590883020482 -0.00485908962426 0.00681313121731 0.00516827605252 0.00343824193099 0.00155222605629 -0.00019506415236 -0.00545049233909 -2.08943704307e-05 -0.00251943638137 0.00182076742359 0.00228121654109 -0.00291049178693 0.00266359843497 0.0034920365631 0.00604916010707 -0.00372418884919 -0.00386524962467 0.000988161466137 0.00427031132468 -0.000391926843688 -0.00460146973752 -0.00246213518708 0.00240628278817 0.00261575033306 -0.00380589097426 -0.0024154169483 -0.00415800981359 0.00362415588364 0.00184377383192 0.00580310208175 -0.00166036084534 0.00417354897541 0.00403475710012 -0.000345459549708 0.00253935158437 -0.00627726849774 -0.000248803316248 0.00177301764358 -0.00118443837065 0.00438449636125 -0.000879911774966 -0.000520001724311
